3366 100
</s> 0.004003 0.004419 -0.003830 -0.003278 0.001367 0.003021 0.000941 0.000211 -0.003604 0.002218 -0.004356 0.001250 -0.000751 -0.000957 -0.003316 -0.001882 0.002579 0.003025 0.002969 0.001597 0.001545 -0.003803 -0.004096 0.004970 0.003801 0.003090 -0.000604 0.004016 -0.000495 0.000735 -0.000149 -0.002983 0.001312 -0.001337 -0.003825 0.004754 0.004379 -0.001095 -0.000226 0.000509 -0.003638 -0.004007 0.004555 0.000063 -0.002582 -0.003042 -0.003076 0.001697 0.000201 0.001331 -0.004214 -0.003808 -0.000130 0.001144 0.002550 -0.003170 0.004080 0.000927 0.001120 -0.000608 0.002986 -0.002288 -0.002097 0.002158 -0.000753 0.001031 0.001805 -0.004089 -0.001983 0.002914 0.004232 0.003932 -0.003047 -0.002108 -0.000909 0.002001 -0.003788 0.002998 0.002788 -0.001599 -0.001552 -0.002238 0.004229 0.003912 -0.001180 0.004215 0.004820 0.001815 0.004983 -0.003111 -0.001532 -0.002107 -0.002907 0.002815 0.001579 0.000425 -0.002194 0.001524 0.003059 0.000194 
花呗 -0.350147 0.115921 -0.157163 -1.027721 0.415566 -0.692787 0.014256 -0.155066 0.526381 -0.664419 -1.123889 -1.306931 0.653465 0.094074 -0.921700 0.229898 0.694487 0.025629 0.061561 -0.746260 0.546569 -0.043564 -0.531039 1.166961 -0.291643 -0.731158 1.727633 -0.013673 0.144572 -0.454451 -0.036746 -1.507398 0.128089 -0.914854 -0.016347 -0.281535 0.080014 -1.440280 0.191205 -1.130120 -0.124400 0.726938 0.565167 0.348254 0.383107 -0.057829 -0.079164 -0.416881 -0.407590 0.169594 -0.832257 1.416135 -0.087862 1.683034 -0.523822 0.360062 -1.621407 -0.551886 -0.587739 0.011844 -0.475770 0.222255 -1.635718 -0.093113 0.604761 -0.299407 -0.115535 0.211366 0.037797 0.011259 -0.313672 -0.846543 0.528242 0.142385 1.405712 -0.109644 0.174002 -1.920222 -0.533119 -0.867093 0.288168 0.456406 -1.382702 -0.307247 -0.396674 0.808333 0.259801 -1.294730 0.590128 -0.601437 0.377653 1.089336 -0.349396 0.382923 0.552632 0.152889 0.320230 0.283357 -1.496377 -1.154184 
借呗 -0.359399 0.435351 -0.792307 0.679543 1.354916 -0.924207 -0.451228 -0.519768 -1.698042 0.529984 1.740054 -2.811502 -0.656280 -0.879973 -0.495254 0.193023 1.842795 -0.171527 0.171368 0.565943 -0.405678 1.177805 -0.646622 0.496843 -0.200686 0.284504 0.449637 -0.521524 -1.943401 1.084211 -0.417248 -1.104292 0.198638 -0.107836 -2.186044 -0.208545 -0.255599 -0.900791 -1.229110 -1.022190 -1.090962 -0.559340 -0.676478 0.433173 2.160469 -0.588578 0.494761 0.371050 0.308491 -1.426799 -1.027210 0.052350 0.033544 1.343184 1.114067 -1.429157 -0.605437 -1.355274 1.177641 0.857403 0.056762 0.475252 -1.963954 1.095795 0.713192 0.224634 1.423891 -0.668243 1.275193 0.380138 -0.190316 0.098302 1.055027 0.867118 0.933070 -2.700548 -0.499494 -0.335125 -0.287385 0.009962 1.107828 0.444715 0.079285 1.050615 1.769902 1.411667 -1.074263 -1.121433 0.393512 -1.035884 0.933722 0.511411 -0.956302 -0.623352 0.913621 -0.126805 -0.715494 -0.464030 -0.554425 -0.124453 
我 -1.850143 0.789663 1.151210 1.542155 1.198192 -0.546232 0.636110 -0.042963 -0.681743 -1.241100 -1.605569 -0.841209 0.661472 1.438572 -1.011844 0.563975 0.924347 -0.275815 -0.788552 0.132477 0.389464 0.479536 -1.176786 1.226713 -0.046539 1.508942 0.215488 0.500379 0.700912 -0.265309 -0.525854 0.427297 0.638567 0.228646 0.936760 -0.187320 -0.294862 0.039250 0.660948 -1.797347 0.128670 -0.494211 -1.470124 0.863803 0.408662 0.118825 -0.822608 -0.934678 -0.134284 -0.552724 0.495301 0.325631 -0.612021 0.745758 -0.425129 -0.105167 -1.106334 1.394614 -1.127444 -0.106076 0.160468 0.586358 0.071129 -0.217190 1.851723 -0.334462 -0.247481 0.309013 -0.151258 -0.883652 -0.813391 1.412590 -0.615427 -0.785632 0.793157 -0.384715 1.663833 -1.076951 0.323150 -0.125916 0.722183 -0.652929 -1.135202 -0.285445 0.819812 -1.492476 -0.901681 -0.115520 0.185198 0.641429 -0.242319 -0.736735 -0.225039 0.258892 0.768347 0.786579 -0.824458 0.769477 -0.162709 -0.591556 
的 -0.467002 0.684978 -0.053771 1.381082 0.030296 -0.065584 -0.695009 1.464515 -0.067631 -0.519946 0.312177 -0.618935 0.936817 1.181344 -0.902943 1.329919 -0.066273 0.497079 -0.840432 0.781312 -0.015665 0.240268 -0.471852 0.692710 0.276942 -0.007726 0.688356 -0.056287 1.601599 -0.784565 -0.599498 -1.293530 0.830392 0.784605 0.925865 -0.209551 -0.012297 0.595675 1.367066 0.314534 0.489946 -0.490065 0.036262 -0.407100 1.032363 0.048732 0.338301 0.209489 -0.358170 -0.798675 -0.300955 0.886774 0.158218 0.089570 -0.379715 -0.847838 -0.187857 0.610861 -0.257577 0.029480 -0.211833 1.055717 -1.590614 0.832654 -0.077777 -0.224467 -1.282623 0.399449 0.213111 -0.454770 -0.251228 0.079417 0.257703 0.407589 -0.411708 1.059014 -1.443746 -0.943348 0.861119 -0.360755 0.009814 0.037603 -0.206668 -0.499651 -0.739980 0.967690 0.343526 -0.073707 0.131212 -0.092389 -0.761810 0.372390 0.543883 0.395597 0.222370 -0.035183 0.867423 0.082624 -0.071204 0.235816 
* -0.419404 1.014604 0.621161 0.482400 1.559549 0.209348 -2.566908 -0.680904 -0.441785 -3.143769 1.837714 -0.519262 -1.406669 0.297259 -0.373491 -1.189531 -0.118421 0.549675 -0.480425 -0.523581 1.171127 -1.252012 -0.011138 1.149927 -0.575442 1.410170 -0.143948 -0.800341 1.455149 -0.949887 0.972111 0.357193 -0.496536 -0.092420 0.986263 -0.941982 -0.675189 1.553233 2.745090 -0.176293 -0.055430 -3.741353 0.072843 1.179439 1.578134 0.393984 -1.218796 0.756368 -2.531120 1.824361 0.183783 2.809175 -0.823525 3.158359 -0.660177 -0.382821 -0.070366 0.616009 -1.242659 1.601390 0.071604 0.505970 -1.115683 1.375107 1.003379 -3.116238 -0.094749 2.372438 0.827866 -1.607726 0.164996 0.063093 2.785041 0.712824 -0.657304 -0.649678 1.322407 -1.341755 1.537681 -0.378472 -0.260949 -1.337115 -2.057893 0.802333 -0.070602 -0.451635 0.333636 -1.091982 1.507713 0.389032 1.971123 -2.462297 -0.687258 -0.330410 -0.548373 -0.513093 -1.733533 -0.515244 -0.705810 -1.187191 
了 -0.583310 0.184552 0.931379 0.128722 1.041072 -0.796605 -1.234985 -0.155228 1.056575 -0.118214 -0.194733 -0.303454 -0.234840 1.438901 -1.526488 1.376902 -0.582656 0.602133 -1.916867 0.295093 0.916709 0.584279 0.355685 3.136658 0.192439 1.752365 1.628517 0.265064 0.277632 -0.518430 1.322850 -0.616855 0.992133 0.322368 0.460231 -0.629097 -0.242360 1.450066 0.587003 -1.170716 0.351532 0.085868 -1.237042 1.039442 0.748212 1.194911 -0.012563 0.115042 0.719873 0.962031 0.676686 0.921632 0.130581 1.692709 -0.445650 0.313866 -1.285042 1.240008 -0.710121 -0.610950 -0.595279 1.249365 -0.264576 -0.017372 1.331884 -0.054011 -0.478020 -0.291097 -0.264420 -0.473414 -0.178613 0.802079 -0.109076 -0.164591 1.816788 1.114537 -1.647809 -0.029447 0.071990 0.060350 -0.589674 -1.114099 -0.268350 -1.123139 0.511106 -0.059914 -1.477108 -0.384701 -0.376379 1.013358 1.345611 0.752268 -0.774568 -0.039508 0.367330 -0.942211 0.275123 -0.593622 -1.829293 0.546361 
， -0.282336 1.545649 0.173029 0.978543 0.185500 -0.256359 0.003461 0.962300 0.465161 -0.481277 -1.144127 -1.738460 0.928455 0.268595 0.161981 0.098847 -0.497154 -0.301992 -1.590193 1.071740 1.916844 0.012897 -0.317740 2.436386 -0.206112 1.021677 1.039062 0.201770 0.472322 -0.060783 -0.187858 0.464973 0.391022 0.099027 0.644737 -1.234825 -0.378422 0.004970 0.765780 -1.136534 0.162501 0.531114 -0.420283 0.167160 0.939441 0.610392 -0.323671 0.145218 -0.459049 0.300698 -0.670607 0.697159 0.009635 1.156988 -0.614628 -1.255699 -1.433481 -0.234477 -0.087437 -0.190985 -0.259818 1.033992 -1.218808 -0.337013 0.495055 -1.028071 -1.841857 0.107651 -0.518211 -0.830461 0.260101 0.445750 0.103974 -0.638724 -0.114480 -0.635406 0.313534 -1.565271 0.155400 0.199271 -0.115471 0.080779 -1.581324 -1.078771 0.736454 -0.003759 -0.294800 0.079189 1.006495 -0.476148 -0.072457 -0.744567 0.807837 0.781055 0.955688 0.475840 -1.226319 0.779217 -1.110249 0.512344 
吗 1.820449 0.527412 1.959178 -0.963897 0.195944 -1.190924 -0.151846 0.263981 0.616122 -0.625239 -0.907594 -1.133611 0.668671 1.622745 -0.031881 -1.803725 0.566974 0.769450 -0.268423 1.394037 0.045627 -0.555016 -0.178797 1.022472 0.821979 -0.519833 -0.511860 -0.187400 -0.181300 1.152734 0.042658 -1.203143 -1.608110 -1.566366 0.104735 0.422809 1.514566 -1.543011 -0.634290 0.212271 -1.079296 -1.038328 0.012824 -0.089049 1.913301 0.421939 0.703304 0.482324 0.076410 -0.231682 -0.081708 -0.746906 0.283898 -1.756441 -1.380643 0.442159 1.336800 -0.055150 -0.619139 -0.299669 -0.045318 0.109171 -0.613570 -0.734084 -0.287502 -1.308523 0.456475 0.731736 0.564853 0.350297 0.724356 -2.163697 1.019329 -1.696397 0.425760 -1.277946 -0.298524 0.044815 -1.122214 -0.945063 0.466709 0.566188 0.490227 -0.432099 -1.223872 -0.063928 -1.424267 -1.033180 1.941620 -3.174425 0.357222 -0.711368 -0.279637 -0.702314 0.513322 0.826580 0.985488 1.627765 0.154120 1.351891 
还 0.118499 0.602105 1.411732 1.136690 1.893257 -1.099817 -0.477641 0.275981 -0.138004 0.125224 0.300039 -0.731355 0.552581 -0.768106 0.066620 -1.927844 0.763185 -1.177564 -1.283219 1.094934 0.835982 0.481839 0.332382 1.170767 0.670747 1.279587 0.046220 0.533631 -0.921546 -0.888947 0.442367 -0.476206 0.497393 -0.035103 -0.209785 -1.630736 -0.376911 0.857813 -0.342128 -1.893512 0.345143 -0.768420 -0.322390 1.482026 -0.902920 0.549066 0.410369 -0.996371 0.355095 -1.421702 -0.866204 0.143885 -0.223005 0.849020 0.627293 -0.420480 0.386671 1.341032 0.254841 2.479027 -2.265411 0.702996 -1.133277 0.261736 0.882015 0.208541 -0.503356 0.649607 -0.574015 -0.778223 1.155477 -1.462550 1.255062 -0.650552 1.822897 0.066300 0.277585 -1.740332 0.363802 -0.764683 0.929399 -1.464967 -1.797873 0.568332 -0.284630 1.368734 -0.803881 -0.298583 -1.091804 0.110119 0.198323 -1.438128 -0.433041 1.166187 0.991878 -0.501961 -0.837529 0.794845 -0.531150 0.128838 
怎么 -1.309091 -0.800851 1.210792 0.255169 1.036745 0.506037 -0.775974 0.151185 -0.742324 -0.566992 -1.089735 -0.926341 1.453106 1.857082 -1.340330 -0.930768 0.616015 0.482377 -1.036284 0.599420 -0.321205 0.130364 -0.777629 1.518659 1.110973 0.705823 0.128308 -0.130828 -0.047697 1.603791 0.761151 -0.410883 -0.449592 -0.577972 0.849938 0.544113 -0.346658 0.271173 0.891691 1.034479 -0.032381 -0.245674 -0.014087 -1.220900 -0.204717 0.813916 -0.417614 0.665395 1.056580 0.551745 0.952530 -0.264460 0.275962 0.056301 -0.070601 -0.172615 -1.493837 1.007478 -0.017773 0.517274 1.423151 -0.143846 0.388162 -0.569394 0.493629 0.083399 -0.465645 1.095202 -0.386130 -0.671787 -0.440788 -0.874126 1.287841 -1.553922 -0.157667 1.009842 -1.533881 -0.027689 -1.059718 -0.267856 0.515870 0.448257 -0.558116 -0.120075 1.017420 0.723962 0.411575 -0.766085 1.578792 -1.387997 -0.949001 1.385970 0.570062 -0.324433 -0.071882 1.449817 0.048660 -1.121579 0.567194 0.231743 
还款 0.382308 0.273862 0.427485 2.045242 1.218832 0.090496 -0.424521 0.333522 -1.890548 0.088912 0.493056 0.648431 -0.376454 -1.256809 1.834516 -0.859420 1.622115 -0.582244 -1.297545 1.270929 0.442095 -0.586575 0.757972 0.570525 -0.300229 0.449997 -0.662972 -0.294045 -1.063659 -0.181238 0.712439 -1.855140 -1.115864 -0.331926 0.246710 -0.311042 0.708941 -0.457323 0.675534 -1.479217 0.984719 -0.531099 -0.027267 1.493994 -0.341066 2.541073 -1.277800 -0.204630 0.005131 -0.253719 -0.216194 -0.294970 1.247192 0.019352 0.204789 -0.665341 0.337549 -0.207460 -0.887109 1.387633 -1.357730 0.298713 -2.256733 0.755542 0.365156 -0.229875 0.043371 -0.777757 -0.367339 -0.930166 -1.114205 -0.625211 0.776520 0.409830 1.609078 -0.504181 0.271825 -0.489181 0.779047 -1.533195 0.750875 0.091864 -0.653793 0.405280 -0.423036 0.742948 0.210776 -1.437345 -0.955582 0.557210 0.922217 -1.242561 -0.506902 0.592010 0.736892 -1.455693 -1.302749 0.479358 0.559319 0.328240 
蚂蚁 0.594952 1.020956 0.321811 0.830173 0.204547 0.688876 -0.913286 -0.580119 -0.547638 0.250836 0.045523 -0.112264 0.073882 -0.661124 -0.213868 -0.551085 0.548469 -0.216634 -0.735625 0.761123 0.166596 1.017574 0.066224 -1.169708 1.091268 -1.368372 -0.457334 0.158679 -0.720690 1.175311 0.661498 -0.187932 -0.549868 0.197054 0.694940 0.079924 0.437120 -0.211726 0.135789 -0.509350 0.138274 -0.560182 -0.503333 0.039386 0.226718 0.157614 0.439634 -0.712638 -0.012102 -0.607166 -0.083666 -1.636850 1.153420 1.190543 -0.085617 -1.561747 -0.687897 -0.561889 -0.104649 0.781118 -0.111281 0.315730 -0.396280 -0.361933 0.796935 -1.265595 0.503699 -1.348157 0.391949 -0.296226 0.383647 0.641243 -0.125602 0.488845 0.137042 -0.846997 -0.623416 -0.217673 -0.238550 -0.122389 0.716495 -0.568485 0.027352 -0.624649 0.148855 -0.421115 0.079526 -0.339430 0.597867 0.368458 0.678939 -0.692116 -0.271429 0.231508 0.764832 0.863390 1.134167 0.593896 -0.166910 0.601199 
可以 -0.142122 0.220962 1.049613 -2.053347 1.888411 0.994897 0.390051 -0.074531 -0.056134 1.410388 0.606456 0.894530 -1.736367 0.326918 -0.906377 1.410648 -2.502106 0.573817 -0.387261 0.237443 0.333834 0.717973 0.483655 -0.545927 0.723714 -0.333061 1.171092 0.505790 -0.049593 -1.861616 0.419698 0.407978 -0.299636 1.092448 1.191429 -0.643257 -0.476896 -0.904251 1.386357 -2.243731 0.724642 0.006177 0.235734 0.876452 -0.277541 -0.814204 0.633123 1.667780 -0.398147 -0.407696 0.173249 0.250849 1.799060 -0.357569 -1.340764 -0.829802 0.670941 0.830778 1.058187 -0.319587 1.894737 -1.427002 0.124151 -1.283618 0.268548 0.104925 -0.078154 1.147893 1.064762 0.232025 0.386958 -0.129514 -1.274890 0.431105 1.296092 0.692051 -0.241302 -0.264874 -1.650216 -0.104829 -0.906527 0.958040 -0.667880 2.403050 0.288358 -0.628196 0.420429 0.486873 -0.580632 0.258122 -1.134765 1.612998 -1.250124 -1.368906 -0.574166 0.701323 -1.138752 -1.025060 0.238683 0.431918 
用 0.435994 -0.435819 0.331117 -0.160074 1.430930 -0.518417 -0.788614 -0.283877 -0.094559 -1.611137 -0.857468 -0.334814 -0.525039 0.228106 -0.273024 0.154488 0.811664 0.926756 0.594126 -0.306515 0.216608 1.746621 -0.315515 -0.120597 0.056271 0.525882 0.932169 -0.841721 1.282513 -1.033837 -1.221631 -0.357722 0.564623 -1.401637 0.567157 0.071819 0.281381 1.144462 -0.600215 -0.995624 0.510890 0.060222 -0.550291 -1.103575 -1.557717 0.336527 -0.156835 -0.975622 0.077491 -0.201647 -1.168530 1.431429 -0.776761 -0.088421 -0.990853 1.238641 0.012217 -0.562944 -0.217756 0.763817 -0.024789 2.092508 1.539917 0.332611 -0.751416 -0.945507 -2.446325 0.041445 -0.318829 -0.279216 0.170458 -0.436941 -1.564446 -0.188866 0.309061 0.959548 1.579490 -0.472187 0.569087 -0.241150 -0.577793 -1.148924 -1.115157 -0.594018 0.451809 -0.023225 -0.442976 -0.492241 -0.188669 0.403076 -0.225274 0.131990 0.376854 2.002736 -0.030099 0.892998 -0.834347 1.876960 0.506424 1.404657 
为什么 -1.200467 0.717953 0.482625 0.674859 2.109502 -0.932427 -1.944642 0.060645 -0.847367 -0.635325 -1.867994 0.463159 0.290568 2.049311 -0.556178 -1.673299 0.124620 0.340776 -1.237151 1.502932 -1.455139 -0.633021 -2.186421 1.479787 0.646268 0.578997 1.094609 -0.534591 1.893435 1.743250 0.352171 0.118873 0.087010 0.311393 -0.548593 0.484009 -1.328518 0.638095 -0.310834 -0.095146 -1.137654 -0.670751 1.253551 -0.230180 -0.767970 0.509720 -1.104708 0.495456 0.785274 1.737136 0.966428 1.250697 0.139116 -0.435750 0.199467 -0.759531 -2.106997 0.702787 -0.361506 0.417054 0.727480 0.629504 -1.074086 -1.414800 0.524446 -0.490020 -0.617509 0.675174 -1.344185 -1.253142 0.459620 -1.050540 1.763547 -0.951646 -0.045409 0.804303 -1.536778 -0.555163 0.543399 -0.586710 0.774640 0.709265 -0.794384 -1.177628 0.926933 -0.547465 -0.725528 -1.033551 2.013321 -0.863279 -0.063626 0.326446 0.913276 0.998102 -0.181810 1.594578 -0.362301 -0.763751 0.592546 1.839439 
额度 -1.541173 0.385465 -0.930933 0.478478 1.142349 -1.935532 -0.576801 -0.411027 -0.519200 1.536775 0.910710 -0.504723 -0.174081 -1.076252 -0.429042 -0.796338 1.291337 -1.405260 1.003234 0.045609 2.001821 -0.915062 -0.839408 -1.019163 1.598016 -0.748109 -1.471952 -0.481890 0.494309 0.838772 -0.376269 0.587906 0.664540 0.801895 -0.133708 0.139860 1.787720 1.099573 0.044911 -0.361990 0.069965 0.159437 -0.708663 0.027717 1.030501 1.180169 0.479460 -2.892962 0.119883 0.067200 -1.332103 0.244348 0.795533 -0.327935 -0.464174 0.228104 0.582030 1.096204 -2.288356 -0.299189 0.841198 -0.768149 -0.132107 0.483202 0.319544 -0.655240 -1.053943 -0.433236 -0.746795 1.715994 -0.563776 -0.996841 0.128254 1.415613 -1.235775 0.908804 1.388648 0.519594 -0.517199 -0.764531 -0.040272 0.266074 -1.939364 0.086016 2.072412 -0.922349 -0.676561 -1.631607 -0.759181 2.532582 0.429941 -0.579365 -0.910094 0.052666 -0.284755 0.920075 1.348758 -0.614878 -1.782850 0.715083 
分期 0.105812 0.645014 0.663261 -0.361517 1.339496 -0.874109 -0.920446 0.533393 0.140454 0.862913 0.444607 0.335413 0.538928 -1.063187 0.567171 -0.654651 1.938890 1.069804 -0.331458 -0.480541 1.317108 0.640033 0.384553 -0.651505 0.680863 0.018844 -2.748691 -1.609437 0.793680 -0.439912 0.700660 -0.326857 -0.379815 -0.973611 -0.669996 0.802496 -0.643820 0.700005 1.297630 -0.019955 1.266919 1.257478 -0.373541 1.121835 -0.121322 0.414046 0.896323 -0.848472 -1.428520 -0.131877 -0.158301 -0.307436 0.882535 0.033762 0.771772 0.000970 0.191568 -0.282772 0.045829 0.750685 1.055156 1.495283 -0.159795 0.047067 -2.253329 -1.852616 -0.598949 0.994920 -1.052850 -1.567475 -0.591737 -1.299587 -0.816936 0.850269 1.185452 -2.238773 1.033920 0.860636 -0.655247 -0.754985 -0.765635 -0.406568 -1.034392 -0.220818 -0.297723 0.640054 -1.201528 -0.373937 1.197961 -0.757264 0.717949 0.500234 -0.866835 1.992363 -0.707991 -0.030620 -0.098181 1.018324 -2.401478 0.194569 
是 0.091594 0.184734 -1.066027 -0.621807 -0.323899 1.373300 -1.259144 1.243208 0.390501 -0.406534 0.331237 0.177866 0.240327 -0.154625 -1.183225 1.816805 -0.266915 0.168096 -1.889422 -0.067247 -0.252988 -0.205379 -0.696170 0.627359 -0.395040 0.903471 1.322099 0.431114 1.535600 -1.375072 0.705978 0.476240 -0.696075 1.050202 0.182291 -0.145858 1.626345 -0.779419 -0.697823 -1.567933 0.663122 -1.659472 1.051869 0.480531 0.134570 1.060153 -0.296139 0.049012 -1.551635 2.264901 -0.165403 1.019298 -0.059539 -0.400437 -0.912561 -0.376605 -0.300710 -0.541052 0.330917 -0.240751 0.655299 0.755103 -0.046560 0.408877 0.810426 0.525747 1.740450 0.603883 -2.066285 -1.756761 -0.670637 0.456939 -0.384415 -0.154263 0.830788 0.441381 -0.123289 0.711168 1.408066 0.004183 0.811614 -0.797355 0.279171 0.001532 0.920050 -0.625175 2.333330 1.682546 1.483366 0.215889 0.275389 -0.335548 -1.012688 0.468444 0.850929 1.286853 -0.893620 -0.365081 0.820159 -0.155266 
开通 -0.127823 -0.636850 0.000273 0.793236 1.901543 0.055006 1.242368 -1.556579 -1.202202 -0.904894 0.052250 -0.702787 0.831080 -0.095738 -0.726596 -0.064359 0.917123 -0.533060 1.271733 1.269951 0.412820 1.442356 -1.783500 -1.066558 -1.423982 0.590048 -0.738517 0.067179 0.961513 -0.210699 -2.342202 -0.789630 0.072965 -1.816362 -0.128141 -0.887847 0.240892 0.579287 -0.966015 -1.546429 1.205820 0.604483 -0.445068 -1.418656 -1.003413 -0.276138 -0.053698 0.473761 0.162975 0.373852 -0.618747 0.970654 0.090226 -0.368283 0.598655 -1.034849 0.318480 -0.200582 0.389711 -0.297492 -0.608340 0.125715 1.224154 -0.852258 -0.637025 0.855845 -1.997524 -2.487477 -1.995968 -0.112111 -0.798118 0.944709 -1.145829 -1.104401 -0.458672 -0.363698 0.873658 -1.609784 0.399076 -0.230582 -2.298703 -2.133919 0.876390 -0.930505 -0.900538 0.380204 1.084908 -0.848538 -0.108324 1.916959 -1.378739 -0.738382 -1.417228 0.839023 -1.009495 0.100924 -0.995805 1.189926 0.177177 1.476743 
不能 0.499741 1.512831 1.010729 -0.720831 0.093835 -0.213031 0.292933 -0.875646 0.198161 -0.811250 1.908817 -0.901152 0.555460 0.134051 -0.935555 -1.018744 -0.555134 -0.954515 0.493533 -1.068362 -0.305652 0.493197 1.844206 0.110732 1.841735 -0.992888 1.517647 0.783576 0.673555 -0.947012 -0.875822 -0.408157 0.854558 0.837101 0.978405 0.879671 -2.101311 -0.648809 0.459862 -1.975148 0.722605 -0.468698 0.861995 0.874329 -0.889252 0.815852 0.376714 1.565925 1.756945 -0.690717 -0.697143 0.814938 0.615339 -0.380228 -1.167096 0.007065 1.146281 1.449154 -0.296851 -1.718514 0.282055 -1.278028 1.271116 0.228455 1.208346 0.989624 0.348192 -0.816254 0.922396 0.793910 0.836372 1.062801 -0.962940 0.515034 -0.212882 -0.304267 2.220181 -0.489087 -0.320810 -0.467870 0.052328 0.525881 -0.434862 -1.891107 0.830800 -1.415837 -0.258745 1.947802 0.282888 -0.241845 0.160688 1.023955 -2.543787 1.429983 0.364750 -1.428127 -1.414962 0.536433 -0.669807 0.544807 
钱 -0.248207 -0.692810 0.705379 -0.640182 2.354952 -0.263933 -0.064472 0.109709 -1.190279 0.123940 0.012012 -0.341882 0.184322 0.095750 -1.700016 -0.460420 0.218064 -1.451723 -3.048615 2.482854 1.757267 -1.316937 -0.460442 0.758276 -0.773011 -0.767354 -0.032820 -0.014483 -2.260873 0.056734 1.163287 -0.744915 -0.339267 -0.387766 1.449276 -0.794129 0.328702 0.213553 -0.495691 -1.802858 0.971192 -1.587134 -2.925592 0.713676 -2.458867 1.835944 0.126472 -0.248221 0.235154 0.804023 0.443027 0.841252 -1.131778 0.278290 0.399990 0.511386 -2.331641 1.437506 0.866230 0.027457 -1.936221 0.602162 -1.747271 -0.202642 0.786211 -0.561538 -0.367532 0.683023 -1.964325 0.014176 -0.290560 1.803695 1.163453 0.871596 -0.582263 1.787703 1.926129 -0.665091 0.106167 1.402106 0.176558 1.032813 -1.679173 -1.283267 -0.067780 -0.572870 -1.770360 -0.653313 -1.691674 -0.059065 -2.145048 -0.168238 0.728869 0.620313 0.469147 1.172526 0.904828 -0.167450 0.394943 0.080634 
能 0.181760 1.051542 1.570590 -1.900660 1.699443 2.324485 1.433903 -0.581546 -0.241622 1.250043 0.672372 1.224499 -2.119704 0.178241 -0.605897 1.459862 -1.794685 1.535827 -0.391429 0.767238 -0.761904 0.206996 -0.634859 -1.525827 0.661382 -0.306414 2.166282 -0.270126 0.229463 -0.519759 1.786740 0.535623 0.253118 1.481937 0.661181 -0.405101 -0.572941 -0.222966 0.116912 -2.172776 0.492669 0.551646 -0.182196 -0.164528 -0.175224 -0.424883 1.278796 0.077831 0.769134 0.041299 0.933501 0.684115 0.629371 -0.064052 -1.440157 -0.804210 0.026198 0.285891 1.253447 -0.080518 1.437419 -0.854994 0.775906 -0.174693 0.256949 0.018295 0.160955 0.709469 0.132786 0.519524 -0.328701 -0.951615 -1.827337 0.611033 1.557006 0.728156 -1.607213 -0.053396 -1.458815 -0.268990 -0.274990 1.699156 -0.444378 1.691123 0.152529 -0.513143 -0.781274 -0.650440 -0.966022 0.850973 -0.538742 2.335055 -0.388146 -0.456858 -1.257321 0.536183 -1.436436 -1.513999 0.348318 0.260368 
没有 1.171054 1.104820 0.005139 -0.806579 -0.071472 -0.526467 1.221311 0.980831 -0.193770 -0.425489 1.341187 0.286001 1.035017 -0.604715 1.392914 0.729347 -0.445500 -1.590486 -0.738994 0.306926 0.220832 1.572422 1.606996 1.342167 0.748384 0.834854 2.823448 -0.861132 2.208591 0.825500 -0.231765 -0.303634 0.787835 0.607519 -0.400918 1.055754 -1.110376 1.148122 -0.638718 -1.219938 -0.257731 -0.895217 -0.825715 0.296678 0.346247 1.135170 -0.990749 -1.090341 2.012583 0.341035 1.042322 0.722351 -1.838407 0.792294 0.072035 -0.554170 -0.839191 1.452739 -1.279144 -0.035744 -0.120938 0.779288 -0.385385 1.400079 0.799121 -0.087025 0.499500 -0.030959 -0.319701 0.660145 0.929841 1.738579 0.508840 1.027530 0.096152 0.432139 0.084192 -1.210608 1.519866 0.948869 0.031356 -0.736917 0.283978 -1.264087 -0.066137 -2.356093 0.389945 1.985786 -0.147123 -0.515270 2.352289 1.898776 1.053549 0.719550 0.295711 -0.129309 -0.314561 -0.817445 -0.236797 0.108337 
不 0.062846 -0.010315 0.481980 1.209404 -1.176735 -0.128561 1.212726 0.441362 -0.802175 0.013823 0.621194 0.672259 -0.062841 0.854876 2.012877 -1.096095 0.317022 -0.118608 0.058132 -0.245666 1.646523 1.497677 0.611875 0.509388 1.084109 0.006761 1.307830 0.111119 1.507448 -0.388576 0.357780 -1.589121 1.278863 1.175058 -0.669573 1.275700 0.214422 -1.872830 0.331587 -1.408058 -0.435907 -1.837819 0.231394 0.879748 1.494174 -0.068870 1.161550 0.752643 1.092289 0.499300 -0.070387 -1.645810 -2.288566 -1.043269 1.268772 0.290526 -2.387930 1.290183 0.644139 -1.148441 -2.801686 -0.425556 0.987124 0.263611 -0.285755 1.643200 -0.486422 -0.119920 0.125597 0.611579 -0.485370 1.052848 0.151327 -0.709411 0.352822 -0.211206 1.261240 -1.521821 2.182025 -0.116944 -1.435943 -0.124785 0.715841 -2.191604 0.031070 -0.330750 -0.598673 1.070598 1.957858 -1.577709 1.479603 0.471860 -1.452258 0.670946 0.768014 0.422131 1.691596 1.249326 0.512916 -0.703231 
有 0.580219 -0.181047 -0.081695 -0.820412 1.086311 -0.579399 -0.308739 0.293236 0.109094 -0.906903 0.180206 0.108582 0.300754 -0.205582 1.193375 2.019926 -0.389237 0.593528 -0.823629 0.774354 0.059295 0.589040 -0.017693 -0.294927 -0.595697 1.476856 0.028049 0.728791 0.632091 0.661935 0.415938 -1.670853 -0.067462 0.706167 -1.791784 -0.241308 -0.619947 0.689168 -1.745822 -0.695710 -2.357373 -0.744771 -1.450651 0.293070 -0.576362 -0.866773 -0.532835 -0.614849 -0.673341 -0.506730 0.276823 1.350737 0.317865 0.262871 -1.166265 -1.274700 1.191920 -1.676045 -1.188706 -0.499497 0.547706 -0.736304 -0.777955 0.317635 -0.319396 -1.728435 0.287789 -0.337014 -1.571587 -0.329511 1.303906 -0.150818 -1.270285 -1.052485 0.532884 0.801434 0.118558 0.293429 2.798333 0.143783 -0.915107 -1.517632 0.526291 -1.111759 -0.261056 -0.691949 1.431235 1.580573 0.692779 0.383972 0.748813 0.563164 -1.288101 -0.336746 -0.217580 0.651969 0.332713 1.322767 -0.681156 0.144445 
什么 -1.192818 1.203127 0.427486 -0.859837 0.155249 -1.057957 -1.132634 0.402633 0.921061 -0.844573 -1.462182 -1.170137 1.132871 2.529274 -0.302658 -0.391050 1.727159 1.624967 0.298110 0.789877 -1.110613 0.741084 -0.711577 0.555684 0.282463 -0.601549 -1.981793 -0.875435 1.198095 -0.388464 -1.453667 0.716505 0.235103 2.222486 -1.708192 1.677910 0.538281 1.052179 0.542894 0.245108 1.068999 -2.306396 1.498175 -0.473906 0.815536 2.542460 1.086663 -1.348731 1.048225 -0.189603 0.535942 1.044820 0.154310 -1.747763 0.147054 -1.952145 -0.987571 -1.065201 -1.776393 -0.765027 0.144168 -0.371961 -1.133144 -0.372254 -0.572489 0.066246 -1.077822 -0.461607 2.708580 -1.719464 0.042691 -0.301382 1.937378 0.510189 -0.347611 -2.272579 -1.639451 -1.863768 -0.619590 0.842225 0.689869 0.775293 1.776703 2.680640 -1.927829 -0.045780 0.245586 -0.193710 1.148587 1.006069 -1.718032 -1.284984 0.661693 2.006221 0.681321 0.102830 1.420757 1.978317 0.966259 -0.496415 
使用 0.696364 -0.531088 -0.200279 -0.006998 1.024749 -0.196283 -0.817526 -1.534991 -0.563721 -2.094205 -1.285375 0.108862 -0.385378 -0.699751 1.179265 0.403620 0.916984 0.009835 1.635435 0.476216 -0.459899 2.355763 0.132580 -0.559351 -0.181708 1.518624 1.361550 -0.748546 1.098443 -0.912397 -0.707933 -0.441822 0.068716 -1.210207 -0.359820 0.077932 0.799506 0.106803 -0.013983 -0.433368 0.638349 0.399067 -0.998389 -1.032357 -0.410872 -0.242329 0.001342 -1.648981 -0.594420 0.363929 -1.216879 1.113435 -0.650680 -1.090799 -0.512044 0.734056 0.808004 -1.214107 -0.288932 0.358706 -0.258113 1.988930 0.956254 -0.653679 -0.933622 -0.762476 -2.958569 -0.927315 -1.002601 0.645799 0.380181 -1.011570 -1.074768 -0.048913 0.950879 -0.389916 0.831847 -0.790997 -0.583664 -0.174124 -0.964633 -0.958511 0.226279 -0.278771 -0.241339 0.252590 0.027061 -1.510736 0.024601 1.045249 -0.278664 -0.872440 -0.322639 1.965625 -1.104485 -0.283087 -0.140683 1.568266 0.554713 1.163666 
在 0.681296 0.457590 1.027395 -1.058461 1.060008 0.121214 -0.077646 0.068270 -2.051081 0.618818 1.128414 -0.090359 0.047223 1.415817 0.197614 2.589861 -0.556875 0.962505 -0.660092 0.360780 0.567534 0.748753 -0.235805 0.512983 -0.491497 -0.240125 0.885041 -0.377993 1.032791 -0.134920 -0.103101 -0.914974 -0.811791 -0.972783 0.599119 -0.922275 -0.269881 -1.390834 1.898342 -0.019594 0.158266 -2.183775 0.651747 -1.554090 -2.276531 0.320131 0.252341 -0.599397 -1.239471 -1.133074 0.873047 -0.382003 -0.669993 1.155509 0.020231 1.277267 -1.495474 -0.658588 -0.729474 0.555780 0.514238 0.611115 -0.927960 0.246177 0.678910 -0.963634 -0.510803 -0.090745 -0.214784 1.134104 2.041956 -0.772872 1.106527 0.434076 -0.049036 0.666419 0.581292 -0.699824 0.983162 1.412191 1.911190 -1.012169 -0.685738 -0.922360 -0.365176 -0.135907 0.414987 1.560220 0.954926 -0.104712 -1.451324 0.900476 -0.410169 0.819522 -0.811880 -1.579573 0.172073 0.301617 1.222661 1.196722 
支付宝 -0.281448 -1.178053 0.778423 0.859192 0.960814 -0.602429 0.893990 0.940989 0.688261 -0.603976 -0.482451 -0.532818 -0.517511 1.928408 -2.156821 0.414186 0.497837 -0.690904 0.001345 0.607468 0.101776 0.906129 -0.485153 -0.046554 -0.708811 0.991646 2.427096 0.718895 1.270623 0.391486 -0.232138 -1.616862 0.885214 -1.132242 0.940244 -0.349357 -0.166777 -0.577939 -0.245200 0.460814 1.642015 -0.278395 -1.040887 -0.424371 -0.672542 -0.549078 0.575661 -0.411545 1.703979 -0.400970 0.192411 0.666538 1.304648 0.501267 -1.406702 0.639067 -1.781673 -0.022829 0.007827 -2.426688 0.858644 0.048917 -0.823963 -0.789848 0.420198 1.024629 0.180721 -0.402934 -1.940305 -0.709972 -0.387890 -0.626895 -0.326730 1.095068 -2.020827 0.489032 0.050545 -1.640730 -0.210324 1.363920 -0.145841 0.181710 -1.070879 -2.427912 -0.843470 -0.829886 0.010195 0.807237 1.113618 0.185577 0.313611 -1.390504 0.188419 0.198429 0.076462 0.374785 -0.210762 0.950295 1.024100 -0.838171 
不了 -0.155132 0.734178 0.940805 0.845586 -0.344411 0.109259 0.174848 -0.176485 0.294841 0.236002 1.665199 0.527460 0.273810 0.303748 -2.489877 0.381212 -0.725408 -1.590627 -0.057191 -1.665264 -0.170773 1.105025 0.029094 1.025665 0.927284 -0.846787 1.974673 1.032249 0.748994 -1.961344 -0.738582 -0.242641 1.908238 1.414358 0.469217 0.852786 -2.196978 -0.351823 1.464655 -1.408370 1.145326 -1.090248 1.271848 0.491948 -0.728021 0.931587 0.279176 1.648591 1.669030 -0.375384 0.065733 0.109472 -0.912156 0.354400 -1.597632 0.279893 0.797935 2.214603 -1.841072 -1.282176 0.581883 -0.841897 1.764245 0.204179 1.216457 0.909937 0.202234 -0.850303 1.101376 1.490501 0.393737 1.166959 -0.472548 1.511174 -0.259451 -0.234857 1.058084 -1.228696 0.101884 0.582967 0.588768 0.573598 1.076638 -2.025769 0.039264 -1.109749 1.063171 2.646677 1.665797 -0.597821 1.137635 1.928785 -0.543356 1.411103 0.493423 -0.274870 -0.842679 -0.275733 -0.539809 1.136662 
支付 0.356188 -1.512847 1.314246 1.166443 0.369396 -2.606496 -0.468959 -0.886610 1.305052 0.454867 -1.088053 0.713481 1.005176 -0.552822 -0.539245 -0.229557 -0.143042 0.212593 -0.816906 0.576842 0.376126 1.073852 -0.350688 0.466319 -0.508609 -0.212887 0.740532 -0.893317 -0.218560 -0.532789 -2.292340 -0.588983 -1.058968 -1.023513 0.794738 0.528102 -0.815149 -0.348115 1.595512 -0.689444 -0.597041 0.509064 0.322631 0.775285 0.137808 0.746373 -1.102601 0.240070 -0.424050 1.436643 0.694587 2.493253 -0.974291 -1.884986 1.610960 0.760611 -0.573549 -2.184351 -0.571974 -0.832175 0.572923 -0.390771 -0.686747 -0.015505 -0.409534 1.648542 0.293344 0.074730 -0.146015 -1.570536 -0.551691 0.418081 -1.104728 -0.966629 0.255150 -0.389144 0.839895 -0.954719 0.528165 0.200663 -0.500978 0.818743 -0.856625 -0.920202 -0.209503 0.476656 0.720912 0.164598 -1.486151 1.112786 0.605561 0.215696 1.005710 2.354628 -0.947658 -0.575681 -0.897476 0.712954 1.774591 -0.493846 
付款 -0.496030 -1.706170 0.713678 1.387670 0.916850 -2.365465 -0.351808 -0.455569 0.417315 -0.217789 -0.659121 -0.472236 0.370383 -0.619803 -0.215106 -0.217955 -0.301759 -0.613467 -1.026025 1.044395 -0.050145 0.962938 1.030751 0.291428 -0.691402 -0.157754 -0.247761 -1.920731 0.200955 -1.207664 -1.480994 -0.533930 -1.361468 -0.261806 1.096092 0.110140 -0.559609 -0.757788 2.956815 -0.267646 -0.452762 0.417703 0.281904 0.496437 -0.395719 1.787895 -0.809973 0.891319 0.218030 2.025911 0.446793 1.616930 0.052824 -1.510750 1.633510 0.255014 -1.340394 -1.230070 -0.356744 -0.718875 0.269434 -0.714603 -1.697958 -0.104194 -0.255431 1.196188 -0.285374 -0.653288 -1.640406 -1.814388 -0.267125 0.406986 -0.682134 -0.444548 0.734459 -1.519415 1.544817 -1.038626 0.789137 -0.245931 -1.492308 0.515156 -0.950105 -1.247677 -0.451328 0.337985 0.652352 0.175512 -1.375705 0.894587 0.710731 0.827260 0.183184 2.491893 -0.999724 -1.640214 -1.098787 0.898946 2.282772 0.461100 
月 2.255474 0.973027 -0.342169 -0.848378 1.089920 0.079215 -1.206964 0.791201 0.401105 -1.002110 1.824600 0.038021 -2.910517 -0.507135 0.569727 -2.338650 2.814078 -1.552550 -1.089404 -1.046532 0.373493 0.469397 -2.747872 2.457945 -1.652435 0.954039 -1.686336 0.335138 0.883499 -0.555505 1.253822 -0.238669 0.666849 0.858302 -2.246275 -0.040745 -0.831907 1.130464 0.539463 -1.461564 -2.155425 -1.894520 -0.588374 0.028505 0.698881 2.576405 0.419588 -1.106741 -0.037841 1.096211 2.422417 -0.099494 1.792023 0.601080 -1.603198 -0.687196 -2.093452 2.272097 1.046364 0.934052 1.622643 2.476781 -0.950469 0.858313 1.044435 -1.489920 2.030836 3.531624 -0.912612 -0.888934 0.785815 -1.248568 1.473759 3.728510 1.714849 -2.304690 -0.855663 -1.154293 0.482629 -0.991428 -2.167491 -0.916862 -4.054262 0.934789 -2.833016 0.012651 0.673173 0.698081 -0.173863 -1.043928 -0.277057 -1.939876 -2.429309 1.403333 -0.285943 -0.541568 -2.219220 0.895697 -0.938450 -0.415575 
到 1.144482 -0.126885 1.013172 -0.358536 -0.813730 1.622266 -1.851755 1.354027 -0.855312 -1.790688 2.391204 -2.613168 1.617872 0.340230 1.158711 1.827957 0.735239 -0.797510 -3.227777 2.111030 -0.094299 -0.423680 -0.804878 0.849978 0.164192 -1.127224 1.233082 -0.289803 -0.776271 -0.921763 -0.652814 -0.279197 -1.275683 1.573486 0.357672 -2.242256 -0.139406 0.011174 0.325557 -0.320481 0.669493 -0.118426 -1.095506 -2.777615 -0.968684 1.011831 -0.344555 -0.946523 0.132515 -0.983436 1.220152 -0.165448 -0.562219 0.367484 0.053229 -0.578275 -0.172281 0.089360 -0.477429 -1.101320 0.015789 2.252564 -1.874213 0.224537 3.021565 -1.524292 0.452797 -0.320604 0.926701 0.017887 1.551894 -0.040457 -0.346246 -0.979128 0.160760 3.503489 1.733901 -1.433495 1.256640 1.617912 -1.862861 0.455492 -1.864967 -0.748397 -1.293200 0.131979 0.198526 -1.126607 -0.311369 0.152548 -2.070837 -1.970208 0.399417 -0.214880 0.445847 -0.667491 -0.788158 -1.396761 0.687442 -0.345608 
多少 1.208557 -0.679213 -0.702958 -1.371054 1.319447 1.191049 -2.904837 -1.211100 0.712131 -1.144647 -1.081592 0.228928 0.572881 -0.220616 -1.788967 -1.813696 -0.084284 -0.252505 0.335309 -0.963122 1.054616 1.273819 -0.517616 1.689413 0.878231 -1.139996 -1.071502 -1.799981 -0.239992 0.378124 -0.358728 -1.018499 0.095649 -0.803719 1.060944 0.927799 -0.791493 -0.755971 2.401762 0.754047 1.023134 -1.561082 -0.647463 0.441546 3.137740 0.680923 1.806345 0.306749 0.426168 -1.329930 -1.088614 0.414651 -1.734613 -2.957356 -0.155600 -1.979330 2.488665 0.239212 -1.583268 2.646485 0.332300 -0.862881 -0.649237 0.478866 -1.029639 -2.595654 0.574903 1.366001 1.987252 -0.820283 -0.717015 -1.667332 1.710122 -1.230639 -0.132599 -1.269606 -0.022378 -1.641686 0.648568 1.535841 1.536894 -1.674030 1.782304 -0.160942 -2.322349 1.340018 -1.403239 -0.744176 2.914165 -1.102756 -1.290445 -1.894436 -1.568149 -0.647499 -0.272733 2.271563 0.238656 -0.268623 -0.982834 -0.036548 
逾期 -0.225975 -0.498701 1.196227 1.282587 0.312583 1.141152 -1.193052 -0.873975 -0.503158 -1.375479 -1.164455 0.716188 0.845660 -2.029006 -0.205214 -0.780898 2.635393 0.806774 -0.121365 1.387159 -0.105658 1.171477 0.274619 0.482969 -1.206503 2.605877 -1.288301 1.395968 -1.745894 0.094742 0.377241 -1.071610 -1.481718 1.448524 -2.847657 -2.863533 -0.593565 2.426990 -0.196491 -0.766842 0.270179 0.798419 -0.129711 0.983856 -1.215889 0.743384 2.196258 -0.048663 1.342285 0.731823 -0.159742 0.386180 0.242584 0.383347 -0.232643 -1.287049 0.286395 -0.439415 0.347143 1.441453 -1.797798 2.152522 0.249381 1.262935 -2.707151 -0.604085 0.056608 -1.848146 -1.168981 1.809461 2.897175 -0.620022 -0.016191 -0.256148 -0.942074 -3.501080 -0.546935 0.039558 -0.594633 1.338758 -0.841522 -0.032123 -0.812081 1.072023 2.247649 -1.584596 -0.699968 -1.141857 -1.148495 -0.133001 1.420971 -1.689154 -1.915253 0.527580 -1.663967 -0.433582 -1.320008 0.806818 -1.769638 -0.346383 
提前 0.477125 1.005660 -1.235046 0.656012 1.557902 0.929655 -1.034407 -0.975003 0.174028 0.360466 -1.382257 0.940784 1.562617 0.421228 -0.480219 -1.697109 3.455990 -0.043060 -0.110133 0.540080 0.931075 0.861613 -0.172629 -0.475241 -2.225536 0.268149 -1.086873 -1.782680 -0.872593 0.127041 -0.202610 0.548512 -0.934128 0.486613 -1.665641 -0.475740 -0.179080 1.627468 -0.074228 -0.404102 0.497389 0.607238 -0.193463 1.604801 0.271528 -0.606472 0.018735 -1.043101 -1.755733 0.033802 0.420063 -1.019598 -0.493524 1.030182 0.246294 -0.995786 -0.195910 1.091744 1.154294 0.815669 -1.992753 3.421474 0.952001 0.141683 -2.588750 -2.295084 1.038385 0.945907 -1.585692 0.732404 1.575189 -0.069598 -0.175425 -0.680764 0.495078 -0.284466 -0.387731 0.251157 -1.046465 1.532697 -0.391031 0.477347 -0.842537 -0.224834 0.743009 0.561185 -2.309382 1.289531 -0.772005 -1.374248 1.642828 1.171415 -1.049677 0.634001 0.410351 -1.096806 0.007627 -0.582437 -2.002728 0.543120 
显示 -1.671268 1.068493 0.139072 2.191160 1.619519 -0.019280 -0.935548 -1.502878 0.010319 -0.230051 0.058539 0.845752 -0.530554 0.576226 -1.025804 -0.913542 0.454615 -1.698839 0.458339 0.461230 -0.624217 -0.106997 -0.052514 2.539898 -0.220476 0.813349 2.136530 -1.393668 3.266602 -1.542482 -2.505692 0.595261 -0.657719 1.250305 -0.726956 0.445078 -2.175617 -1.098012 0.087099 0.069539 -0.077461 -1.177619 0.111927 0.436422 -2.206919 0.899066 0.056241 -0.293025 -0.009182 -0.118531 -0.924972 1.744230 0.575013 1.196285 -0.017554 -1.027729 -1.807203 1.180982 0.761203 -0.444038 0.623176 1.390525 -2.605605 -1.813624 0.251516 -0.925159 -2.239149 0.565288 -0.885720 -0.977562 1.845602 0.514527 1.100049 -1.128520 1.193711 0.853514 1.464372 -1.321740 0.790834 1.274712 1.104752 -0.173435 -0.959167 -2.961825 0.033093 -0.836752 1.382189 1.849423 0.061813 -0.961344 -0.353386 -1.446092 1.333802 0.256653 0.029209 -2.129599 0.522953 -0.845738 -1.874808 0.293375 
会 -0.143168 2.085706 0.860747 -3.867618 0.266442 0.349384 2.300189 -0.377121 -0.397098 0.836658 -1.173664 0.837710 -1.463027 0.547346 1.034366 1.535747 -0.201451 -0.632234 0.793842 0.397350 0.300546 -1.018494 1.704738 -0.693905 0.093903 0.820269 1.246798 -0.110887 1.350635 -0.557587 -0.278304 -2.066212 -0.257913 2.368959 -0.934785 -2.018351 0.975533 1.671231 -0.961869 -0.656169 2.098825 -0.515480 -2.481975 1.836031 1.369498 0.619887 0.064800 2.201235 1.337564 1.891293 0.771351 -0.262910 0.884718 0.322139 0.789992 -0.186732 0.397923 -1.047437 0.190458 0.354880 -0.748156 -0.556894 -1.885818 -0.427432 -1.903812 -0.500985 0.018521 -0.465421 -1.441819 1.319579 1.548606 1.505306 -0.879930 0.387669 1.365687 0.096877 -2.592638 -1.456725 -2.168718 -1.676128 -0.487888 1.564825 1.284236 3.225573 0.726497 0.197125 0.351404 0.694978 -0.133409 0.671234 0.680424 -0.932148 0.660876 -2.116273 0.984776 1.619727 0.331207 -1.180458 -0.017729 0.070424 
现在 -0.271023 0.273439 0.294287 0.858021 1.829841 -0.623718 -0.649860 -0.638922 -0.982157 -1.558889 0.745582 0.041503 0.916113 1.006178 -1.648183 0.278009 -0.873807 0.652421 0.465241 -0.400586 0.685329 0.015409 -1.468356 1.031699 1.068201 1.560019 -0.392021 -0.056675 0.308670 -0.580749 -0.228003 0.119439 0.558125 -0.400446 1.442951 -1.047251 -0.905384 1.412994 -0.456242 -1.279646 0.428183 -0.832929 -0.664902 -0.124978 0.539281 0.247657 0.354946 -0.922417 0.865767 -0.366934 -1.017478 1.602800 1.155526 1.828137 0.360064 -1.331358 -2.260265 1.571166 -0.777884 1.057102 -0.477578 1.023749 0.345589 0.862844 -0.019867 0.060545 0.175444 1.010229 0.048571 -0.241919 -0.176951 0.437476 -0.370860 0.856006 0.506665 0.088394 -0.568452 -1.381168 -0.868684 -0.469867 0.194924 -1.333337 -0.953903 -1.610907 0.157713 -0.503129 -1.580422 0.531776 0.223240 0.146361 0.695204 -0.397093 0.690319 -0.899205 0.873229 -0.356697 -0.431707 -0.218020 0.259001 -0.650346 
退款 -0.126683 -0.775131 1.403305 -0.281278 2.387301 -1.486817 -0.608069 0.722676 3.420970 1.619978 0.074575 2.173424 1.802540 -0.942504 2.875211 -2.028690 0.170291 -1.915976 -0.681879 2.423195 0.039524 -1.915377 0.477608 3.119500 -1.009637 2.986770 0.357268 -1.739796 1.279455 -0.076597 -1.285742 -1.510745 0.998477 0.590729 0.151239 -0.961376 -1.071310 0.578101 1.854885 -0.507351 2.699724 1.112528 -2.314250 1.877052 -1.221842 1.599200 0.691872 -0.010936 -1.100435 2.100980 1.938083 2.070997 -2.279841 0.931974 2.622094 -0.771634 -1.626873 1.168690 0.125822 -0.092811 0.587134 3.337493 -2.037697 0.842441 -0.192669 -1.334589 0.350725 -0.424310 -1.149775 0.392359 0.210667 1.142229 -0.309494 1.423305 -1.486267 -0.513688 1.480769 -1.018814 0.107937 1.153000 -1.188930 0.433604 -3.499597 -0.762690 -0.208277 -0.731113 -1.318833 0.763551 -1.504808 -1.985278 -0.826175 0.206281 0.633037 2.439818 1.851722 -2.466353 1.879304 -1.862453 -0.107418 -0.359502 
后 1.778074 0.482002 0.011521 -1.326872 0.999867 -0.539853 -0.697153 -1.526456 0.612514 -0.575725 -0.108377 0.725237 1.470127 0.857855 1.539093 -0.636010 1.987232 1.163680 -0.951122 0.007274 0.997977 0.905939 0.592523 0.665971 1.874330 -0.074095 1.012112 -0.203935 0.493943 0.022435 -0.016846 1.028865 -2.067587 0.067053 -1.353232 0.144778 0.385466 0.009761 0.196326 0.329054 -0.797570 0.325297 -2.067999 0.555044 1.848349 -0.286706 0.404585 1.260853 -0.483983 -0.877625 -0.319058 0.622620 1.098577 0.599992 0.031678 0.628221 -0.968240 1.447059 0.461148 0.464500 -0.766223 -0.059113 -0.740471 -0.167688 0.383605 -1.675592 -0.696456 -0.019858 0.011347 0.756516 -0.672647 -1.272178 -1.464005 -0.297348 1.945702 0.582011 -2.640630 -2.297222 -1.055512 0.677880 -1.581273 0.466891 0.753223 -1.046040 -1.025495 0.181454 -1.128222 0.313929 0.635284 0.158295 0.444099 -0.162166 0.012033 0.471754 0.682389 -2.168364 0.873534 -0.837385 -1.249456 0.211714 
没 0.790893 1.481630 1.106373 -0.246807 0.793446 -0.212749 2.111879 0.175756 0.258593 -0.229943 1.219165 0.661292 0.371866 -0.907893 0.550514 0.004158 0.021334 -0.350448 -1.334826 0.347841 0.335356 1.565940 1.804948 1.463315 0.841958 0.014533 2.740888 -0.183617 2.127366 0.705578 0.610827 -0.352534 0.247316 0.635134 -1.348622 1.133403 -0.050085 1.645395 -0.454408 -1.373810 -0.727961 -0.244549 -0.421155 0.628709 1.326720 0.360354 0.137701 -0.861801 1.423762 0.705359 0.844656 -0.345726 -2.221891 0.739275 0.090068 0.250933 -1.600358 1.237708 -0.994767 0.423399 -0.970530 1.006677 -0.035528 1.409580 0.109307 0.022339 -0.236945 0.902484 -0.516156 0.543046 0.195875 1.217182 0.917121 1.151867 -0.215848 -0.011603 -0.707352 -2.276653 1.053364 1.579963 -0.419317 -0.627444 0.346269 -0.299427 0.527229 -3.143237 -0.586484 2.015288 -0.276959 -0.723214 1.960001 1.645769 0.548937 1.022256 0.592230 0.597267 0.725022 -1.320605 -0.444914 0.713832 
银行卡 -1.014413 0.570232 0.101095 2.345203 3.286543 -0.208724 -0.966495 1.574798 0.549702 -1.439411 -1.081244 -0.116989 0.096921 -0.664528 -0.743584 0.313300 -0.599854 -3.472556 -0.942089 -0.629121 -0.791940 -0.236931 1.804805 1.155350 -0.904015 0.894850 0.102957 -0.390019 2.176143 0.972520 0.565748 0.298196 0.640114 -0.202338 2.311647 -3.104247 0.429356 1.049750 -2.634870 0.967529 1.003641 -1.388149 -1.241969 -0.117139 -1.700860 -0.184626 0.995613 -1.199662 2.565967 2.055057 -0.213095 -1.410777 1.960719 1.200838 0.661468 0.658128 -1.060514 0.602009 1.699413 -0.435856 -0.709559 -0.119335 -3.103338 -0.839403 -0.557353 1.159854 1.156163 0.309253 0.682737 0.088799 -2.307329 -0.977099 0.906353 0.382396 -0.462820 0.460078 0.278170 -1.658677 0.120780 2.476187 -0.572947 2.815750 -0.685025 -2.005915 0.655501 1.323561 -1.081012 -1.182890 0.238541 -0.029145 2.107600 0.677240 1.708446 3.138873 1.256886 -0.174611 1.874582 0.428046 0.592688 -0.953149 
申请 -0.632357 0.920727 -0.080728 -0.285859 2.342268 -0.864196 1.505196 0.326584 -0.732971 -0.202554 0.922607 -0.088105 1.697329 -1.064939 0.389546 0.094092 1.102243 -0.436489 -1.126187 1.110789 0.518098 -0.240707 0.409031 -1.150918 0.774713 -1.170715 -0.809647 -0.200313 0.355802 -0.703226 -0.626770 0.761427 -0.100809 -0.439163 -1.352278 0.410857 0.831184 0.625435 -1.105171 -0.851723 -1.211045 1.540762 -0.735793 -1.773423 -0.885723 0.292417 -1.178007 -0.238811 -0.948026 0.241750 -1.272958 -0.485214 -0.844566 0.256819 2.124985 -0.705343 -1.247951 0.229159 0.746051 0.777591 -0.435577 -0.418474 0.953328 -2.124636 0.652364 0.683721 -0.247138 -0.964107 0.073231 -1.679532 -0.250939 0.321737 -0.869466 -1.266644 0.124405 0.227217 -0.118339 -0.816933 0.969346 -0.533583 -2.091784 -1.803832 1.392481 0.053966 -1.418878 -0.252263 0.171564 -0.796183 0.502470 1.632107 0.029806 -0.305427 -1.042044 0.244719 -0.376336 -0.909594 -0.046976 -0.239195 -1.764715 0.793366 
收款 -0.225308 -1.424609 -1.096084 2.770024 1.360079 -1.317101 0.976556 -0.785321 0.843256 -0.443733 1.475327 0.565818 0.049725 -2.035430 -1.687901 -1.182367 0.019233 -1.248605 1.157167 0.615524 -0.870503 0.806903 -1.789361 -1.595980 -0.361415 0.391298 0.392564 -1.609577 -1.310035 -0.209794 -2.287889 -0.950024 -0.749118 -1.509376 0.346755 1.210178 -0.842800 0.517794 3.438346 0.031116 -0.027210 1.580384 -0.442480 -1.340476 0.824328 -0.044277 0.103388 0.593390 -0.496426 1.342868 1.792620 2.267920 -0.462644 -0.288953 2.413928 0.204409 0.703122 -0.458885 -1.140833 0.430120 1.479391 -1.892396 -0.109770 -1.659986 -0.544806 3.316593 0.347837 -2.625712 -0.877104 -0.751187 0.348955 0.206534 -2.406475 -1.857833 -0.862817 -0.946706 0.224374 -2.306938 1.273995 1.171818 -1.728986 0.142596 1.030555 -1.519972 0.245028 -0.209481 1.862401 0.057421 -0.585726 0.158742 1.107935 0.127405 -0.714272 1.830812 -2.997058 0.811786 -0.182723 0.403233 1.986020 -0.021174 
时候 1.891148 -0.025100 -0.192879 -0.455988 -0.057149 0.153087 -0.791067 1.702226 0.351085 -1.767052 -0.410886 -1.255578 1.408465 -1.770160 -0.854211 -0.599237 0.084848 0.341039 0.600975 -1.143405 0.727216 1.547339 1.460219 0.710059 0.206394 2.510574 2.049335 1.020860 -0.585850 0.862859 2.827360 -0.985650 -0.458389 -2.122162 -0.119591 -1.636706 1.126678 -2.213209 -2.085205 0.316805 -0.676480 -0.580490 -3.199909 -0.506290 -1.102340 1.871009 1.585779 1.094651 -1.583445 2.790540 -1.262107 -0.768360 -1.000730 -0.783076 0.791255 -1.815319 0.233849 2.091425 -1.134352 2.257972 0.302143 -0.632595 2.151151 1.208027 1.194133 -1.994836 1.367546 1.129936 1.480107 1.082528 -0.469671 -0.753495 -0.552102 -1.226261 0.739736 0.642598 1.847937 0.862781 -0.130477 -0.033936 0.052462 1.855134 -0.272173 -3.526225 0.572728 0.218536 -1.199273 -0.240806 1.974752 -0.893113 -0.485589 -0.805605 -1.110628 0.252075 -0.978993 -1.030068 -1.256007 -2.060381 -0.989874 0.811992 
余额 -0.608368 -0.346876 -1.617187 1.789978 0.418400 0.112691 -2.653835 -1.876894 -0.891822 -3.586907 -0.875208 -1.467076 0.799689 1.130090 0.248280 -2.316770 -0.019318 -3.514510 0.319571 2.359498 2.287023 -2.065548 1.333785 -1.508399 0.023359 -1.781109 0.202312 2.144304 0.796940 0.613876 -1.519976 0.347707 -0.631337 0.911789 0.915024 -2.052380 1.983988 -0.382530 -1.756660 -0.371659 0.945017 -0.794723 -0.967468 2.376059 -0.336275 1.155469 -1.375150 -1.337779 0.894382 2.941140 0.498986 0.093834 -1.602966 1.620911 0.288294 -1.318280 1.043756 0.796785 1.415893 -1.168419 1.463194 1.261395 -3.334479 0.468702 -0.934083 0.118509 0.153582 0.212029 0.617894 0.235697 -2.113173 0.042671 3.131057 1.398311 0.292148 3.342612 1.692406 -0.282039 -2.187330 2.328716 2.428619 0.295838 -0.683228 0.182660 0.654455 1.628622 -1.327318 0.728963 -3.101241 0.934663 2.290122 1.590994 1.237813 2.604692 -0.997281 1.086335 1.262512 0.182013 0.869589 1.237504 
自动 0.391029 1.571765 1.132771 2.330746 0.227843 -1.127020 -2.685312 -1.452219 -1.045782 -0.675567 -0.615648 -0.921631 -1.525057 1.211681 0.659926 -1.803703 2.807283 0.513304 -0.503762 -0.449443 2.282015 1.690490 0.901974 0.526706 -1.679763 -1.052520 1.729365 -0.916244 1.568541 -0.079532 -0.929964 1.038170 -0.801022 0.086490 0.240675 0.500610 1.607939 0.024878 -1.448694 1.579216 0.910909 -0.233160 -0.927633 1.015029 -1.218167 1.936351 0.808272 1.154285 -1.446493 0.175928 1.627679 -0.830460 0.208875 1.673736 0.534240 -0.912981 0.938419 -1.420768 0.367323 0.503428 -1.190581 1.895504 -0.432764 -0.757436 -0.271580 -1.110467 0.950689 1.144348 0.318482 0.612505 -0.228998 0.130552 1.542038 -2.515374 -0.073609 0.760970 0.258938 -0.132519 -0.209841 2.658504 2.236347 2.885371 0.819740 -0.389926 -0.972664 1.045499 -0.488866 1.233198 -1.953777 2.059071 0.514400 1.151392 0.991282 -1.041055 1.332564 0.592347 -1.058138 1.203126 -1.009048 -1.232742 
关闭 0.304724 0.838176 1.364884 0.034184 2.396290 0.182540 0.798459 -0.331458 -1.367882 0.428608 -1.144076 0.115673 1.647571 -0.361287 1.165343 -0.995192 0.949980 -0.413718 1.344093 1.833789 0.689161 1.395288 -1.017433 -1.633241 -1.545543 2.745711 -0.089741 0.302073 0.073370 0.335492 -1.463857 -0.234391 1.793281 -2.172849 -1.382992 -0.938086 0.188242 0.721198 -1.267170 -1.173565 2.393707 0.797128 -0.840279 -0.575915 -1.150059 1.556180 1.010086 0.339950 0.854546 0.443015 0.700155 0.173656 0.751264 1.411039 0.474151 -0.553262 1.722494 0.410976 0.938760 -2.755297 -0.721227 1.780558 1.889713 -0.363605 0.023290 1.450176 -0.740189 -0.521570 -0.957156 0.485279 0.570264 -0.027336 -0.976601 -0.787313 0.039858 -1.615920 0.629818 -1.319837 0.399694 0.855744 0.347578 -2.041173 1.026629 -1.453117 -1.559816 -1.557335 1.018868 -1.293312 -0.567640 1.176334 0.421633 0.251770 -0.686549 1.625602 0.069291 -0.912546 0.155402 -0.085685 0.351549 0.028016 
要 -0.863632 -0.172997 -0.418885 -1.496712 -0.489181 0.718178 0.115675 -0.497574 0.417884 -0.776748 1.109670 1.175664 1.763004 -0.530241 -1.173393 1.826090 0.475217 -0.875878 -1.156722 -1.115074 1.999357 2.369220 -0.961228 -0.021664 0.097954 0.580186 2.296490 -0.363600 0.974829 -0.755713 1.238509 0.247337 -1.005636 -0.639988 0.952156 -2.083619 -0.544508 1.402182 0.385973 -0.205984 1.285987 -0.836633 -1.335553 0.450712 1.073519 -0.041053 0.542720 2.238034 -0.290379 0.103142 -0.697545 0.019945 -0.048631 -0.385056 -0.703099 -0.387516 -1.340634 0.713139 1.400375 1.015090 0.533273 -1.058513 0.963650 0.235401 -0.845024 -0.912569 0.037814 0.817277 -0.152942 -0.259692 -1.949549 0.353307 -0.009325 -0.388504 0.502479 0.852479 0.189135 -1.196041 -0.037794 0.727434 -0.982427 1.140270 -1.000531 1.207145 -0.185066 -0.617265 1.558682 1.878880 0.884265 0.052864 0.388063 0.556378 0.274382 0.491665 1.493290 0.229199 0.229780 -0.808154 -1.199109 0.722716 
和 0.924708 0.322750 -0.384009 0.804311 1.185534 -0.195940 -0.389081 0.075885 -0.636140 0.140724 0.451273 -0.602804 -0.123977 1.325551 -0.833919 1.144888 -0.041724 0.627260 1.050139 -2.695892 0.974154 0.287198 -1.158857 -0.921476 0.936159 0.740869 1.128212 -1.529693 2.094161 0.390599 -0.987940 -2.447735 -1.955915 0.822371 0.043218 1.386105 0.158732 -1.637410 0.561567 -2.132622 -0.072015 1.529348 -0.575490 -1.161867 0.455912 0.218388 -0.300627 1.864214 -1.758196 0.214101 0.262836 -0.505413 1.362266 -1.286692 0.088877 -0.885388 1.113773 -0.453577 0.664702 -1.249886 -0.586924 -0.492980 -0.766238 0.401364 -0.887784 1.106301 0.050775 0.666762 -0.493699 -1.388770 1.010249 -1.550548 -0.668138 -1.126963 -1.410615 1.966332 -0.072992 0.176790 1.554089 -0.213366 0.944624 -1.279732 3.090239 -0.510658 0.376855 -0.846530 0.769332 0.783494 -0.169055 -1.093393 0.340534 -1.638266 2.213768 -0.766837 -0.143160 1.256707 -1.885845 2.103420 0.816790 1.103101 
如何 -0.864269 -0.922843 2.018595 -0.637718 -0.272995 1.794618 0.738476 -0.832707 -0.753833 0.132380 -0.108766 -0.167933 2.054161 1.774206 -0.488291 -0.768887 0.124057 0.617863 0.331936 0.294914 0.226274 -0.225992 0.821126 -0.063322 1.445108 0.666158 0.097431 -0.141098 0.309061 0.918080 0.774383 -0.413185 -0.629332 0.033035 1.112425 0.958034 -0.703489 -1.475142 2.209794 1.401338 0.559051 -0.020393 -0.495120 -1.443325 1.206196 1.044450 -1.177983 1.628490 -0.119254 -0.371334 1.993767 -1.152858 0.886654 -0.610607 -0.796958 0.216481 0.830866 0.108424 1.169539 -0.787380 2.156186 -1.909628 0.703301 -1.610129 0.467457 0.323811 1.108000 0.581322 0.056116 -0.174324 -0.638755 -0.867565 1.531324 -1.672063 0.695457 1.350045 -1.449230 0.365263 -2.342699 -0.398924 0.393806 1.120309 0.475727 0.974059 0.479813 1.014945 0.537610 -0.448752 1.915094 -1.343420 -1.153013 1.623427 0.407583 -0.589197 -0.425018 -0.262051 0.399810 -0.722485 0.560897 -0.508530 
这个 -0.435285 -0.706664 1.150402 1.457686 1.174395 -0.788461 -0.008277 0.636253 -0.329222 -2.519438 0.540881 -1.856888 2.239748 2.789943 -1.294922 -0.550925 0.360909 1.345573 1.122104 0.315425 2.744135 -0.438192 -0.415883 0.149532 0.938274 0.083047 0.250549 0.810976 1.245574 -0.766761 1.351441 -0.958213 1.038142 -1.154200 0.919214 -2.131739 -0.451689 1.226561 1.282975 -1.954746 2.642907 -1.811860 -0.255645 0.824337 -0.014159 0.116927 -0.228113 0.651353 -1.352309 -0.535732 0.251838 2.162292 -1.707403 1.592101 0.011933 -0.649533 0.051377 2.191253 -0.722220 0.787543 0.102363 1.244455 -0.596421 0.131922 -1.537458 -0.011676 -1.932477 0.760042 -1.048561 -0.836830 -0.028688 -0.414809 -1.321680 -1.236970 -0.055856 -0.024177 -0.275867 -3.682611 0.241187 0.823714 1.170448 -0.206302 -0.441927 -1.292893 -0.419456 -0.062928 -0.630744 -0.910267 -0.725132 0.461124 0.684819 -0.630669 -0.296647 -0.783463 0.257717 0.521992 -0.973649 -0.398472 -0.484246 -1.403779 
借 -1.276594 0.616431 -1.007138 1.236841 3.289220 1.544740 -1.397737 0.035651 -0.644165 -1.755689 1.613954 -1.624455 -0.172638 -2.185929 -0.616504 -0.356364 0.435256 -0.510027 -0.974289 0.154968 0.269814 1.664557 -0.434211 -0.924246 0.455011 1.910521 -1.549180 -0.097327 -0.900743 -1.139927 -0.094072 1.009487 -1.969475 -0.204387 -1.827194 -0.297437 -0.317515 1.498535 -1.770741 -1.153853 0.119556 -0.315142 -0.758360 0.188937 -0.743681 -0.660226 -0.023995 -0.382760 1.029217 -0.716723 -0.682168 -0.038433 -0.534973 0.698182 -0.477939 -1.070920 -0.484400 0.425756 2.410258 2.838289 -0.840257 3.693998 -0.298472 0.582085 -0.731479 -0.453236 0.075270 0.994466 2.029398 -1.826674 1.220496 -1.406913 2.033058 0.307970 -0.292705 -0.978725 0.094846 -0.114391 -0.385048 0.674760 0.644517 -2.975724 -0.303289 0.473111 -0.434817 -0.341063 -2.444485 -1.627224 -2.599781 0.247486 1.311424 -1.414010 -1.280779 0.653760 -0.774463 1.387165 -0.907606 0.636770 -1.068571 -0.521500 
已经 0.349713 0.993928 1.198082 1.242882 -0.483470 -0.407377 1.011715 -1.452562 0.766407 -2.016274 0.179953 0.502580 3.005745 1.778797 -0.995595 0.341179 0.910336 -0.102588 -0.856999 1.476132 0.452389 0.568260 -0.645932 2.734084 1.851035 1.698725 2.272828 -0.762110 2.088540 -0.221436 -0.593009 -0.769268 -0.477074 0.000498 -0.246231 -0.323624 -1.993973 1.680076 -1.672119 -1.591618 0.295524 0.087549 -0.398584 1.110898 0.217007 0.563407 -0.019200 0.024432 0.402112 0.159117 0.013315 1.523397 0.392591 0.820685 -0.509986 0.129914 -2.367636 1.718140 -0.659533 1.259730 -1.239815 1.211795 0.857582 -0.768663 0.898470 0.185069 -0.781121 1.366303 -1.174587 0.371460 1.731776 1.908650 0.650730 0.217750 0.364267 1.868949 -0.517667 -3.245024 -0.042175 1.142854 -1.467330 0.835423 -2.087755 -0.951689 1.436404 -1.597254 -1.929268 2.162339 -0.383447 0.037779 0.012793 0.328919 0.845375 1.221543 0.850266 -1.610831 -0.858575 -1.350189 -1.671213 -1.238426 
么 1.463181 0.945141 1.545851 -0.709177 0.340843 -0.970975 0.081215 -0.183716 0.419713 -0.051607 -0.937482 -0.789067 0.121246 1.297555 0.049377 -1.822394 0.552492 0.226715 0.287082 1.124231 -0.210010 -0.471261 -0.332097 0.925281 1.069375 -1.059765 -0.171469 -0.294231 -0.108344 1.507398 0.326257 -1.159523 -1.478062 -1.205129 0.272230 0.247272 1.393479 -1.556096 -0.305043 -0.182560 -1.046924 -0.354174 0.074939 -0.041926 1.641169 -0.037719 0.256240 0.037854 0.693017 -0.289358 -0.400345 -0.785785 0.391819 -1.065948 -1.031314 -0.009726 1.337655 -0.435314 -0.456249 -0.423350 -0.152189 0.223970 -0.615040 -0.377400 -0.455234 -0.700808 0.389251 0.600604 0.588691 0.160587 0.428706 -1.740009 0.520272 -1.153605 0.581708 -1.214678 -0.442079 0.418920 -1.347878 -0.903572 0.768432 0.414629 0.589423 -0.587244 -0.848296 -0.030324 -1.121857 -0.550480 1.755306 -2.624561 0.434432 -0.708377 -0.254042 -0.158246 0.590813 0.726242 0.859403 1.587292 -0.013434 1.154420 
怎么办 -0.784469 -0.071796 1.215753 -0.127296 1.169285 -0.426389 0.497862 -0.059284 -0.666051 -1.293347 -1.857299 -0.072430 0.510958 1.775520 -1.822091 -0.249584 -0.876668 -0.440553 -1.891009 1.776035 0.010348 -1.162983 -1.623370 3.152901 0.060794 2.384330 -0.290572 -0.699525 0.322746 0.303790 1.024438 -1.177030 0.224073 1.330487 -0.663288 -0.320464 0.036978 -0.108312 -1.058319 0.696451 0.427878 -0.240114 -0.696342 -0.405312 -0.823249 -0.105770 -1.224216 -1.450971 2.023729 0.253566 -0.666138 0.381463 -0.727253 -0.260572 0.649702 -0.770584 -1.676350 0.331302 0.017486 -0.167323 0.082129 0.003879 -0.145283 -1.981931 -0.755103 0.426036 -0.302534 0.114602 -0.410463 -0.977834 0.883355 0.315441 1.077343 -2.612938 0.788179 1.610319 -1.951169 0.006951 -3.040777 -0.214813 0.651070 -1.261685 -0.917390 0.090305 1.502979 1.386104 0.099568 1.100856 1.169473 0.089632 1.322449 0.266737 3.415797 -1.237664 0.935683 1.397114 -0.033843 0.090612 0.698649 -0.419530 
账单 0.940881 -0.764038 -0.446775 1.065531 0.969941 0.837399 0.233404 0.137663 -0.361883 -0.249125 -0.027326 1.212824 0.087601 -0.333036 1.317761 -1.089567 2.090266 -1.000968 0.918524 2.005313 1.309720 -1.231690 -0.115232 0.716125 -0.906085 1.407742 -0.140154 0.518604 -0.378695 0.499967 -0.307310 -0.627227 -1.306983 0.174883 -1.586676 1.056378 0.626060 0.264541 1.737148 -0.579862 -0.446914 -1.117110 0.172936 1.831188 -0.500918 1.445296 -1.375771 -2.396063 -1.484469 -0.072901 1.147778 0.871167 -0.645002 0.527436 -0.822368 -0.251462 -1.513154 1.609660 0.186046 0.887576 -0.914217 1.964095 -1.647765 0.328036 0.670878 -1.746689 -1.606678 1.700381 -1.451083 -0.370269 -0.304513 0.070313 -0.313386 0.255403 -0.576221 -0.250961 -0.968906 -0.748787 -0.021401 0.455462 0.016501 0.082906 -2.186081 -0.193125 0.484683 0.585025 -0.810620 -0.676140 -2.192833 -0.564058 -1.490089 -0.647800 -0.322880 0.735796 -0.743149 -1.992591 0.410398 -0.219790 -1.112631 -1.165251 
一个 -0.439917 -0.834061 2.740227 0.080040 0.897021 0.581018 2.061734 0.201465 -1.033097 -2.050888 0.411716 -0.658357 -0.234531 1.942789 -1.152182 0.878910 1.048687 1.938102 2.027474 0.125579 2.325080 -0.632237 -2.706088 -0.702543 0.064036 2.569101 1.104243 1.198247 1.406363 -0.355305 -1.449588 0.891047 1.968821 -1.581446 1.284832 -2.283612 0.047986 0.019061 3.622193 -1.091339 0.999707 -1.608991 0.261579 -1.442369 1.131391 1.058782 -0.685299 1.180177 0.618251 -1.595010 0.908518 2.688772 1.732851 3.360319 2.050926 -2.094863 -0.809916 2.361085 1.347082 -1.327723 -1.195397 1.777820 -1.048675 -0.718749 -1.276861 1.849102 0.671231 -0.582390 -1.636017 -0.791835 -0.302303 -0.288475 -0.376624 1.449766 -0.666005 0.151477 0.617073 -1.595682 -1.478663 -0.008780 -0.098181 0.738125 0.074323 -2.546760 -2.047893 -3.571184 -0.590304 0.219295 2.110785 1.115300 1.030333 -1.359773 1.363086 -0.126775 -3.135295 -0.619870 -0.844575 -1.417583 -1.284464 0.079936 
买 -2.527893 -0.298865 -0.979296 -1.168933 1.772570 -1.867341 1.005789 1.980621 2.733624 -0.887307 -0.677762 2.173154 1.154807 0.587343 1.038228 2.555945 -0.670041 1.091319 -0.721558 1.556436 1.139625 -0.299696 0.617069 0.235217 -1.045333 1.424055 -1.352124 2.886534 -0.629072 -2.810921 -2.285381 1.231127 0.517425 -0.656757 0.615579 0.308555 -0.938894 0.737379 2.811305 0.985202 -1.120238 0.090047 -0.433863 2.184105 -2.652575 2.166027 -0.150640 0.313168 -1.078839 2.158670 -1.489200 1.115174 -1.781950 -1.541600 -1.271025 -0.111192 -3.398398 -0.291306 0.265885 -0.898911 -2.573800 0.610336 1.121244 1.608340 0.123597 -2.435462 1.893210 1.148942 -1.435070 -2.544238 1.262284 -2.495747 -0.252016 0.349207 -1.603698 1.021146 2.376457 -0.531536 -1.203512 -0.603067 1.296671 -1.222888 -2.564681 -1.108800 -1.611822 0.530692 -2.099310 0.621460 -2.494859 -0.898049 0.685350 -1.906577 1.927855 0.721962 -0.944061 -0.583831 -1.561062 -0.762921 -1.664033 0.154152 
都 0.325058 -0.680538 0.175845 1.144707 0.107181 -1.697285 -0.226021 0.595759 0.502582 -0.301129 -0.572220 0.110268 -0.624163 0.550752 -1.091320 0.543823 1.670195 1.161603 -0.327192 0.151954 -1.736808 1.233928 -1.340607 0.938720 1.468946 -0.135762 0.548411 0.711141 2.246785 -0.828977 0.235828 -1.412057 1.285581 0.160327 -0.374102 -0.735166 -1.120995 1.602928 -0.816700 -0.179970 -1.033792 -0.145295 0.620485 0.261893 -0.192853 -0.120479 1.033618 0.331761 0.897837 -1.416424 -0.862697 -0.207459 -0.757138 -1.509476 -0.585178 -2.151632 -2.448644 0.603313 -1.226225 1.916085 0.125748 -0.130027 -0.417981 -0.211828 -1.654633 -1.244049 0.000992 0.379734 -0.228118 -0.137248 1.439704 0.756029 -0.571275 0.366189 0.236039 0.056675 1.361421 -0.958860 1.305122 -1.169769 0.676841 0.241251 -1.341943 -2.264071 0.395756 -0.349300 -0.774256 -0.431571 -0.743992 -0.632065 0.017500 -0.279727 -0.428141 0.757663 -0.015326 0.203115 0.700053 0.068340 0.139910 0.739711 
淘宝 -0.312196 -2.386281 1.457902 0.198303 1.557962 -0.019589 0.435809 0.878851 0.994987 -2.336611 -1.835719 -0.308589 1.265451 0.895869 -0.703305 1.265350 -0.003044 -2.126137 0.597525 0.392005 0.203017 0.358611 0.694734 -1.613352 0.120860 1.827658 0.495649 1.686767 2.505169 0.069480 -1.151993 -0.300336 2.169764 -0.023761 1.469697 -1.147836 -0.127729 -0.818774 1.187019 0.711615 0.421910 -1.126214 -0.187149 -0.609020 -0.068556 -0.996485 0.802773 -1.239553 0.413326 0.313000 -1.156793 1.572744 -0.048286 0.209114 -0.159575 0.814568 -2.117168 0.816792 1.107676 -1.650459 -1.490840 0.021054 -1.997625 -1.767201 -0.969992 0.907333 0.043517 0.311043 -1.013753 -0.099567 -0.598860 -1.870082 -0.887184 1.553537 -1.385441 -0.436678 -0.254428 -1.023226 -0.537389 -0.037802 -0.848665 -1.033855 -0.083100 -2.778473 0.104988 -0.209398 1.278573 0.002429 -0.027287 0.244290 -0.161660 0.273669 1.088978 1.631252 -1.694414 -0.898155 -0.351169 0.904500 -0.811707 -0.681476 
临时 1.258066 0.577948 3.146306 1.010049 2.387371 -1.382670 -0.298900 -0.045468 -0.847608 0.804899 1.149922 0.733922 -1.674515 -1.702826 0.896556 0.935840 2.629272 0.905347 2.183172 -0.754066 1.785970 1.029697 0.408833 2.328204 -0.502168 -1.014124 -0.944477 0.272958 0.692156 0.900667 -0.820873 1.867799 1.110638 0.626643 -0.995879 1.376004 1.557915 0.071496 0.439007 0.703783 -0.066526 0.218704 0.540110 0.007478 0.338655 -1.215976 0.099482 -0.114251 0.627382 1.115463 -1.237504 0.898365 -2.022641 -0.330836 1.639265 -0.427462 0.870775 0.966102 -0.849289 0.546270 0.973608 -0.570324 -0.401318 2.319859 -0.009556 -2.426003 2.048681 1.581385 -0.029155 -0.974046 -0.537209 -0.574338 -2.337334 1.242616 -1.140422 -2.383943 -0.653289 -0.003799 -2.274438 1.501416 1.133350 -0.031438 -1.979387 1.447656 0.054066 1.013782 -0.018192 -0.570241 -0.848189 1.658793 0.309534 -0.500816 -1.663118 -0.753462 0.037509 -0.714539 0.784840 0.345899 -2.054310 0.630717 
还清 -0.030417 0.687712 0.754487 1.498221 2.909496 0.290436 -0.124893 0.153650 -0.557400 1.494483 1.146140 -0.301383 2.272305 -1.446409 0.971485 0.094477 1.946048 -1.053964 -0.040969 0.404309 1.268599 -1.241329 -0.850685 -0.485662 0.462204 2.903286 -1.856914 0.550709 -1.107456 -1.042133 1.437779 -0.173163 0.191015 0.709151 0.472945 -1.405551 -1.582057 1.238859 0.738208 -2.151565 0.791208 0.696264 -0.140406 1.980117 -1.394453 0.711744 0.786451 -0.576745 0.976838 -0.919958 0.522666 1.842382 1.020376 1.071208 1.222032 -1.765148 0.035909 1.404737 0.365158 1.735611 -0.290644 0.693241 -0.752817 0.761458 -0.014731 -2.488971 -0.126773 -0.672801 -0.721578 0.283922 1.013219 -3.097268 -0.928818 -1.219652 2.628999 -0.985883 0.462557 -0.829254 0.759425 -0.221143 -0.981268 -0.491618 0.725205 -1.016524 -0.696992 1.052341 0.085160 -1.359550 -0.017347 0.424406 -0.084683 -0.300482 -1.794626 2.246848 1.475067 -2.183022 -0.325008 0.680596 -0.717895 0.283857 
想 -1.752993 -0.599148 0.623280 1.456586 -0.445847 2.707358 1.112101 0.996499 0.736344 0.616459 0.539384 0.117840 1.964489 2.502818 -1.646780 0.940023 -0.197191 1.700773 -0.407113 0.399182 2.848778 0.640520 0.857047 0.601590 2.416561 -0.909160 -1.153777 0.371860 0.276700 -1.649967 -0.303270 -1.420857 2.789527 0.759435 0.652873 0.231942 -1.681522 -0.125546 1.012512 -0.960388 0.045599 -0.477686 -0.185849 -0.440957 0.805288 1.915854 -0.177264 1.290319 0.390339 0.414915 0.383064 0.908862 -0.402033 0.185658 -1.270922 -1.018353 0.106348 0.887458 1.288216 -0.304225 1.087721 -1.078428 2.388062 -0.219644 0.103741 -0.362431 2.111080 -0.417784 -0.304261 -0.301964 -1.283191 -0.446825 0.358831 1.030198 0.886510 0.562864 -0.428692 0.180679 0.201156 -0.237383 -1.757503 -0.554707 -2.051425 -0.533664 0.707658 0.251995 -0.065329 0.314640 0.147979 -0.912908 0.757408 0.421075 -1.358122 -0.612590 -0.853207 -0.735673 0.064144 -0.342906 0.176015 -0.723691 
影响 2.461809 -2.647960 0.808021 -0.585094 1.228515 3.688627 -0.152602 -1.763728 -2.569976 2.329606 -0.229249 -0.065493 -2.883420 -1.776483 2.665235 0.677113 1.424590 2.190677 0.204960 -0.362054 1.735316 -0.739635 -1.231002 1.238072 0.213196 1.829171 -0.050637 -0.187629 2.391598 -0.176370 -1.242438 -1.049086 0.297591 1.841662 -1.205210 -1.698475 0.043666 -1.423839 -1.631627 2.060966 -1.991853 0.207092 0.061073 1.254059 -0.756289 0.215405 0.092135 2.577758 -1.338739 -1.114948 0.074952 2.255520 1.821153 -0.700780 -0.976766 -3.563007 3.447805 1.950765 -1.512487 0.406461 0.048101 -1.895913 -0.459160 -2.207659 -0.748823 -1.129333 1.001138 -1.565483 -0.643427 2.197047 1.484811 -1.985788 -1.530901 -1.201030 0.530180 1.441611 -1.503935 -0.599290 0.383905 0.957415 1.665156 1.718935 0.816814 0.330176 1.073744 -2.293767 -1.487181 1.309763 -0.218367 0.794180 1.098536 0.337674 -0.253448 -3.627657 -0.486715 2.429688 -1.094661 -0.381866 -2.308094 0.755920 
还是 -0.528143 1.459945 0.047203 0.130229 0.282921 -1.636226 0.564411 0.938491 0.207176 -0.819028 0.473729 0.106113 0.910566 -0.414112 -2.087934 -0.600933 0.112583 -0.509603 -1.370285 -0.278763 -0.655096 0.551276 -1.873046 1.246524 0.452464 2.010902 1.732135 -0.977250 1.887914 0.611751 0.315082 -0.554505 0.077075 1.049173 0.556068 -0.945841 -0.374982 0.219702 0.843697 -1.424407 2.224885 -1.135735 0.097099 -0.146128 0.217695 0.796107 0.400594 -0.688506 -0.190402 0.057616 0.761133 -0.500590 0.690754 -0.453585 0.040793 -1.081542 -2.328663 1.112318 0.671031 0.716034 -1.011713 0.527169 -1.835803 0.239283 -0.572428 -0.636285 -0.424678 1.793809 -1.382162 -0.458906 1.414004 0.920183 -0.131470 -1.557948 1.377573 1.335999 0.323294 -1.739775 0.190291 -1.707187 0.456614 1.603468 -1.233450 -0.255338 0.825799 0.608754 0.977370 0.235346 -0.057143 -0.315290 1.530779 -0.838105 1.701009 0.385350 0.522196 -0.386547 -0.128480 0.592041 -0.033458 -0.816807 
上 -0.325863 -0.686866 1.339067 0.554725 1.971637 0.996109 0.173245 -0.849248 0.005004 -0.760668 0.291799 -0.657216 0.355339 1.683995 0.138729 -0.113759 1.154238 -0.917599 -1.018581 -0.478338 0.945930 0.994005 -0.079316 0.441538 -0.104472 1.023097 1.629549 1.994262 0.982492 -1.235193 0.053706 -1.568194 -0.760009 -0.639226 1.696330 -0.479033 -0.182891 0.748733 0.949465 -1.270764 0.851236 0.327074 -0.644626 0.784967 -0.222766 -0.747821 0.186606 1.363591 -0.808200 -0.429086 -1.003804 0.995925 -0.640102 0.788244 -0.268719 -1.449576 -1.785338 1.829118 -0.444350 0.751992 0.095824 1.579564 -0.383405 -0.082200 -0.081584 -1.036822 -1.592696 0.205090 -1.489867 -0.849087 -0.495595 -0.164907 0.687641 0.562236 1.603359 1.313197 1.475729 -0.841357 -0.873862 1.634156 0.682164 -0.672981 0.311339 -1.619703 -0.036459 -0.140269 -0.681302 -0.002450 -0.530275 -1.139750 -0.036868 0.450755 2.191835 0.458399 1.398712 1.063653 -0.121883 -1.249024 -0.328986 0.168030 
账号 0.053252 -0.984456 2.212986 1.803613 1.141611 0.008080 1.836481 -0.176060 -0.524959 -1.322261 1.564441 -0.078472 -0.649082 1.872696 0.312273 0.975595 -0.260348 -0.729402 2.647407 -0.754457 1.854310 1.952117 -2.649397 0.454051 -1.943229 3.037945 1.132955 3.124814 -0.180528 0.558112 -2.692461 -1.325794 1.329486 -0.048662 0.223147 -0.679934 -0.031481 1.057446 -0.986975 -0.579855 -0.062704 -0.470204 -1.770210 -1.265099 -0.237632 0.142104 1.008726 -1.093208 0.239264 0.059792 -0.166989 0.767283 3.618748 0.483572 -1.018852 -0.989309 -1.541094 1.277630 1.392575 -1.711520 1.464589 -0.165207 0.082785 -0.285804 0.919767 2.818238 1.358191 -1.051731 -2.066137 0.121825 -0.873296 -0.235722 -0.432023 1.300721 -0.744030 -0.807439 -0.280020 -0.882158 -2.201464 2.493399 -0.756276 -0.538677 -1.368731 -2.167436 -0.477140 -1.526708 1.056141 -0.487538 -0.208528 -0.104642 -1.086735 -1.136561 -0.620500 0.859130 -1.781169 1.379647 -0.585959 1.628184 0.830724 -0.942520 
就 0.605250 1.294916 1.324129 -0.204578 0.407134 -0.518272 1.631901 -0.248411 0.557515 -0.156615 -0.124576 -1.852175 -0.420525 0.673971 -0.063311 0.833554 1.181512 1.392226 -0.734606 1.021248 0.358125 -0.086728 -2.065891 1.425939 1.508605 0.918660 -0.768233 -0.153475 0.811789 0.300047 -0.124234 -0.376919 0.730772 0.096005 0.811884 -2.120870 1.042339 1.231725 0.023129 -0.738783 0.407253 1.271317 -1.030978 0.070235 -0.710572 0.594457 0.732912 0.321377 1.505706 0.437584 -0.855308 0.307106 0.095906 1.039803 0.697587 -1.495050 -1.596974 0.045911 1.141037 0.628371 -1.246593 0.235750 -0.257042 0.103501 -0.897810 -0.268291 -0.131844 0.134657 0.173315 -0.777815 0.935824 0.348489 0.501684 -0.918879 0.115475 -0.325975 0.717560 -1.031921 0.698732 -0.971966 0.447790 -0.749371 -1.679827 0.204091 0.419624 -0.812621 -0.497904 0.651291 -0.665422 0.014906 1.834711 -0.081570 -0.066386 -0.555736 -0.674461 1.083883 -0.546706 0.494749 0.528699 1.292433 
利息 1.490281 -1.332440 -2.191704 0.177438 0.241898 0.523011 -2.398707 -1.874800 -0.536159 0.461472 -0.068845 0.064686 -1.768727 -1.121248 -0.762157 -1.839440 1.372134 -1.756120 -2.236246 0.432525 1.246159 -3.059693 -0.771035 -0.007854 0.239418 -0.177375 -3.892202 0.290261 -0.224592 -2.789762 -0.509693 1.301159 -0.391047 1.203130 -0.454656 -0.926015 -0.183933 1.067129 1.598698 -0.223533 1.417469 -0.903945 -0.918781 1.658089 -0.131630 2.099155 0.252217 0.019140 -1.603164 -2.075784 0.417543 0.315102 1.631335 -0.623959 -1.152295 -0.190134 0.153300 1.146844 -0.546255 0.310665 -1.818886 0.239970 -1.210045 -0.370523 -1.230331 -0.174711 1.597515 0.449456 -0.530543 1.094150 0.914593 -0.746756 0.339637 1.128781 0.052318 -0.441151 -0.418932 -0.372748 0.109089 -0.888282 0.798364 1.001907 0.537865 1.848016 1.840169 0.844388 -0.295318 -1.732066 -1.046458 -0.650174 0.267796 0.650988 -1.091117 0.196025 0.744216 2.162928 1.461408 -0.498042 0.531870 -0.188661 
号 0.518969 0.924955 0.940369 0.415798 0.827417 0.306490 -0.642390 -0.116104 -0.176900 -2.982947 2.994312 -0.245249 -1.070675 1.953783 0.499891 -2.105420 0.810584 1.363784 0.576245 -1.736743 3.115476 1.708669 -1.954790 2.298290 -1.175421 1.932788 0.534187 2.119292 0.699215 -2.006448 0.324773 -0.656454 -0.011615 -0.024422 0.153849 -1.923854 0.867012 2.839376 0.103913 -0.600792 -0.455158 -2.757159 -0.756924 -0.287967 0.051719 1.681287 0.591284 0.130548 -2.689382 0.745083 0.700267 0.280732 1.948462 0.902898 -2.637541 -1.248647 -0.894486 0.477433 -0.403177 -0.140825 0.810202 1.068968 -0.209254 2.401308 0.700986 -0.397992 1.427979 0.819633 -0.457698 -1.220364 -1.491063 -1.519291 1.537873 1.050593 0.444196 -0.875287 0.017892 -1.741370 -0.979962 1.213148 0.811858 0.664718 -3.015348 0.319576 0.213265 -0.926628 0.391264 -0.057382 -1.333957 -0.280237 0.602551 -1.564515 -1.186406 -0.697396 -0.630853 0.419930 -1.453939 -0.016000 -0.106396 -2.039363 
绑定 -1.085958 0.178393 1.314990 2.536940 1.834746 -2.214370 0.759547 -0.638555 -1.826660 1.246952 0.619434 0.384497 -0.297110 -0.280480 -0.661867 -0.335625 1.526938 -0.048677 -0.360078 1.056038 -0.446403 2.561005 -0.839264 0.573744 -2.105234 0.127242 2.127461 0.517432 -0.427356 -1.571116 -2.733811 -1.696524 -0.230654 -2.593848 0.621214 -0.131334 -0.093123 1.537931 -0.045059 -1.644243 0.612904 -0.589171 0.659365 -1.459702 -0.678780 0.554160 -1.198174 1.270903 0.203443 0.721186 -0.156246 -0.365035 2.226423 -0.753616 -0.581499 -1.960879 -0.260614 0.070059 0.022592 0.015295 -0.512427 -0.887095 -0.006420 0.914954 0.218998 2.097087 0.662681 -1.518924 -3.187198 -0.425066 0.745557 0.986320 0.506594 0.330365 0.508137 0.132972 3.203833 -1.051782 -1.065664 1.723199 -0.311543 0.828790 -0.615743 -1.367572 1.236390 0.580451 -1.216892 -1.583350 -0.103912 1.347101 0.546351 -2.020092 1.736322 0.458895 -0.174081 -0.261838 -1.260438 1.079875 1.178621 1.175751 
信用卡 0.293692 -0.208955 -1.586484 1.600688 1.149019 -0.183662 -0.381208 -1.566204 0.636303 -1.661328 -0.879642 1.005352 -0.076752 -0.261518 -0.958767 -1.385316 -0.032337 -2.725513 0.783252 0.625708 -2.165972 -0.100088 -1.281496 -1.914852 -0.704479 1.350355 -0.875816 0.649301 0.260457 0.309311 -2.030642 -0.161263 0.722645 -2.464404 -0.566001 0.681674 -0.588482 1.939194 -0.106231 0.676479 0.027392 -0.640998 -0.801048 0.594234 0.456267 -0.530946 2.123729 -1.051373 0.010701 0.571146 1.444553 0.352421 0.263154 0.827620 1.927782 0.388912 -0.325420 -0.558994 -0.327045 -1.372830 1.815742 -0.923337 0.030044 -2.829501 -0.377949 1.853633 0.460407 -1.256215 -0.753135 0.247603 -1.701759 1.124967 -3.383395 -0.070190 -1.352759 -1.049216 -0.244082 -3.338938 -0.157909 0.356912 -1.416078 1.654328 1.879315 -2.633827 -1.659645 2.750578 0.984491 0.206546 1.922460 0.865162 1.062546 2.594896 -1.791213 2.609504 -1.127219 0.730669 3.214534 -0.604150 1.021367 -0.522478 
取消 -0.446416 -0.631187 0.765434 -0.862175 1.359376 0.498353 0.442094 -0.382454 -1.057365 0.839655 -1.092760 0.531022 1.733253 0.602661 0.521448 -0.892126 0.586277 -0.245694 1.477542 0.897594 -0.777295 0.821120 1.385109 -1.451005 -1.713567 0.248516 0.011847 -1.293289 -0.982371 0.319959 0.352315 0.303659 0.792122 -0.825942 -0.708762 -0.611108 0.240549 0.501652 -1.351283 -0.413223 1.023234 0.154049 -0.853415 -0.365490 0.265972 0.232176 -0.541458 -0.653294 0.604854 0.865290 -0.602402 -0.409302 0.231272 2.220364 0.598348 0.762508 2.261750 0.728640 0.116865 -1.898866 -1.099367 1.020720 2.231709 -0.621738 -0.511196 1.321333 -0.159033 0.629251 -0.180818 0.957049 0.630289 0.732945 -1.299212 -0.738910 0.466534 -0.583146 -1.112955 -0.483173 0.292865 0.420111 0.720438 -1.364348 -0.654178 -0.643088 -1.160999 0.209227 0.281790 0.467931 0.532873 0.638610 -0.243359 0.371719 0.285440 0.901409 2.264770 -1.336962 0.091157 -0.410788 0.282816 -0.753744 
手续费 2.278202 -1.252423 -0.993259 -1.454291 0.095928 0.014889 -2.233983 -2.210887 -0.611052 1.300609 -0.630983 0.225290 -0.181612 -1.350667 -0.296719 -2.132983 1.537540 -1.697969 -3.087214 0.317436 1.942214 -2.788481 -0.855798 -0.439382 -0.586511 -1.888007 -2.763683 -1.602905 0.086260 -2.571414 -1.103836 1.658574 -1.053711 0.963815 0.828819 -0.843661 -0.763418 -0.346223 1.541851 0.920031 1.382718 -0.507066 -0.866893 2.003015 -0.956077 2.856062 -0.516767 1.268904 -3.050269 -1.430039 0.996883 0.399115 0.672771 -0.795896 -0.077978 0.463220 -0.013756 1.418721 -1.059863 -0.335367 -2.064927 0.311218 -0.260681 -2.979980 0.311862 -0.488103 1.248618 0.743680 -1.720815 1.231047 0.251349 1.203484 -0.923417 0.890055 -0.759236 -0.795543 0.268380 -1.270621 0.573338 -0.777253 -0.444791 2.371356 0.305079 0.308766 0.515457 1.133210 -1.131479 -0.992888 -0.691834 -0.800349 -0.832886 1.623372 -0.842693 0.823006 0.813574 1.432896 1.004845 -1.510690 0.264719 0.103254 
支持 -0.649600 -2.273047 -1.866330 -0.147175 0.496163 0.229613 -0.658347 -0.607836 -0.320388 0.156924 -1.353547 0.771389 -1.142020 1.115530 0.248005 -0.681425 -0.365778 -0.471193 0.125987 -0.677056 -1.626388 2.059159 0.549368 -3.007737 0.230171 -0.264181 1.281921 -0.130901 0.340660 -3.198887 -2.932173 0.266419 -1.400819 -0.216282 -0.345376 0.779866 -2.080587 -1.674588 1.019265 -1.415183 0.072384 1.448333 1.042000 1.010976 -2.249007 0.231377 -0.647561 0.225230 -0.581689 1.817736 -0.916397 1.061766 1.246338 -0.233724 -1.262269 1.016492 0.760422 1.072984 -0.757220 -1.335024 0.633202 1.012266 0.677230 -1.903356 -0.317229 0.952442 -1.475740 -0.619196 1.478275 -0.381330 1.623943 1.087423 -1.800826 -1.673101 -0.180426 2.308055 1.152927 -0.160249 1.760697 0.469145 -1.270101 0.546081 -0.702149 0.090310 1.440358 -0.092032 2.000603 2.633565 0.862642 0.831710 -1.711821 -0.023605 1.198897 2.274068 -1.458858 1.575849 -0.610080 0.152181 0.936663 1.111626 
把 -0.373298 1.612034 0.833074 0.981795 0.155336 1.271009 0.155958 1.661635 -0.128567 0.004609 1.212494 -0.813302 1.315138 1.290177 -0.401441 0.887723 -0.343399 0.334858 1.071882 2.068793 1.875902 0.103987 0.632261 0.718853 -0.716021 2.407467 -0.279039 -0.408370 -0.328288 0.322825 -0.486771 0.746259 1.747818 -1.024193 1.325510 0.042723 -0.813130 0.522659 -0.263280 -0.783365 1.321270 -0.617584 -1.431427 -0.789877 0.943412 0.544095 0.047643 -1.032393 0.649698 0.161230 1.234830 0.511846 0.408025 2.125566 -0.259625 -0.241756 -1.053378 0.303575 1.348673 -0.679606 -1.431142 2.053789 2.118402 0.428370 0.127550 0.612931 1.532179 1.045223 1.070958 -0.260051 0.534406 -0.548245 0.381570 -0.736770 0.435009 1.737452 -1.158109 -0.507996 -1.612918 -0.033008 0.836405 -0.612129 -0.601841 -1.167731 -1.267978 -0.649458 -1.029981 0.852156 -1.553782 -1.026419 -0.617454 -0.866797 -0.351605 0.028779 1.783367 0.560471 -0.433623 -0.035551 -0.344963 0.956128 
里 -0.817348 -0.450937 1.398718 1.135736 0.387223 -0.051490 -0.626039 0.701484 1.241024 0.047460 -0.480429 -0.385395 1.185327 0.427764 0.492002 -0.239689 1.089285 -2.187705 -1.965360 0.324782 0.240538 0.768427 1.139946 0.709444 -0.093454 -0.508015 1.785159 0.304532 1.391406 0.336551 -0.980220 -0.383932 -1.081344 0.155709 2.328772 -0.275188 0.140782 0.066770 0.376246 -0.740417 -0.734590 -0.080870 -1.678369 0.134539 -0.257700 -0.188042 -0.454501 1.432040 0.575123 0.471707 -0.072287 1.633752 0.057849 0.497005 0.226724 -1.471139 -0.348352 1.369027 0.665300 0.001589 -0.304245 1.319254 -1.476119 0.460799 0.597133 0.043670 0.017629 0.655046 -0.878883 -1.163485 -0.162498 0.127491 1.741015 1.408049 0.252636 2.170326 0.828072 -0.480268 -0.507653 1.390333 1.183605 0.339619 0.184687 -1.480843 -0.365185 0.013679 -1.470543 0.578307 -1.722939 0.666189 -0.867265 0.132710 1.581055 0.656365 1.894139 1.812837 0.021744 -0.401907 0.697532 -0.060481 
但是 -1.329896 0.135685 1.933910 0.690472 1.863618 -1.391273 -0.394146 1.064766 0.064844 -1.616395 -0.873624 0.162221 1.730926 2.366308 -1.123640 -0.019625 -0.268810 0.013019 -1.414902 1.426440 0.119768 -0.338001 -0.174677 2.399340 0.116351 2.312643 2.098078 -0.969081 1.373409 -0.021989 -0.042023 -0.621837 0.126615 0.542269 0.147389 -0.776313 -0.853470 1.060709 -0.715297 -0.150809 -1.142628 -0.330362 -0.187337 0.427844 -0.992669 0.988517 -0.701569 0.104589 0.887172 -0.063058 -0.463770 2.294361 0.154063 0.541397 2.255185 -0.300459 -2.695735 0.385293 -0.799948 -0.435239 -0.871451 0.495215 -1.270496 -0.897113 0.943359 -0.395305 0.284391 0.554832 -1.381649 -1.676081 0.081291 0.408503 0.745913 -1.221206 0.638648 0.994772 -0.772200 -1.550921 -0.395157 0.199782 -0.499916 -0.448539 -1.130700 -1.488921 0.103805 -0.581212 -1.140043 0.495086 0.902366 0.025429 -0.244283 0.137624 1.904088 0.647294 0.314964 -0.108735 1.166020 -1.883392 1.427825 0.753623 
信用 -0.963470 -2.177968 -0.711090 -0.870110 1.666941 -0.006548 -0.401172 -0.862785 -1.339072 1.125324 -0.110234 1.142557 -0.809625 -1.408835 0.479998 0.435343 1.731810 0.124197 1.170961 -0.663857 0.910420 0.209436 0.435339 1.130826 0.673877 0.660724 -0.492509 0.544481 -0.650030 0.082872 -0.319111 -0.369183 1.468579 1.172266 -1.163747 0.881823 -1.055868 0.495125 -1.596393 0.506816 -0.190551 -1.846911 -1.953370 0.500967 0.632236 -0.980842 1.012182 0.442164 0.202715 -0.388200 -0.031530 0.013347 -0.684209 -0.076852 0.720178 -0.180487 1.922099 -1.236763 -1.625645 0.857023 -1.260383 -1.260008 -0.754994 -0.799035 -0.481351 1.460070 -0.210002 -1.421395 -2.537902 0.715506 1.379845 2.357214 0.164458 1.678912 -0.440068 -1.987242 -1.691664 -0.515051 -1.057668 -0.302171 0.617205 0.475762 0.159828 0.134553 0.486687 0.124039 -0.711630 -1.938186 1.974368 0.225387 0.512210 -1.736246 -1.884011 -0.212104 -1.155463 2.480256 0.754583 2.541075 -2.380986 -0.294909 
给 -1.728975 -0.236655 -0.444816 0.241270 -0.290617 -0.164506 -0.424138 0.224904 0.764781 1.002438 0.213828 -0.198839 0.745294 0.713470 -0.463631 1.249353 -0.340662 0.563159 -0.447856 1.887793 -0.339908 -0.049344 0.136511 -0.293877 1.394379 -1.480010 0.380363 0.210120 -0.085216 -0.438342 -0.926570 0.702564 1.009277 -0.749831 1.453304 -1.304884 -1.235497 1.698659 -0.756678 0.237097 -0.555086 0.436228 -0.937896 -0.900223 -0.177533 -0.004610 0.923545 0.068027 0.385834 1.502355 0.010178 2.149807 -0.384649 1.568113 -1.161209 -0.138831 0.770621 0.818079 0.437602 0.036940 0.675281 0.493824 1.239465 -0.442202 0.517274 0.141082 -0.028355 0.540702 1.295414 0.937592 1.545832 -0.500797 0.195247 -0.198042 0.145726 1.739898 -0.899767 -0.004433 0.901197 -0.557137 -0.074379 0.572745 -1.541553 -0.677327 -0.934061 -1.163703 1.060711 -0.222574 -0.532216 -0.651950 -0.585354 -0.900866 -1.747149 0.347739 -0.305326 0.091222 -0.377518 -0.187528 0.534375 0.413426 
扣款 -0.490659 -0.184914 0.537657 1.360839 2.318048 -0.455153 -0.190500 0.290921 -2.356459 0.846400 -0.649748 -0.231743 -0.775365 -1.200125 2.446873 -1.873155 0.328598 -0.192684 -2.250426 2.313884 -0.133001 0.069556 0.851102 0.878784 -0.944297 0.163541 1.055398 1.280262 0.437463 -1.026425 -0.573552 -1.178148 -1.460517 -0.960938 0.262643 -1.633394 1.797200 -0.555202 0.431855 -0.569776 0.155747 -0.404062 0.005589 1.955384 -1.488020 2.566894 -2.090696 1.454712 0.955645 1.962356 0.457860 0.602866 0.915875 0.632411 -0.054471 -1.143735 1.261115 -0.807840 0.315324 -0.459891 -0.380262 0.632232 -3.094222 0.294747 -0.371117 0.162294 0.302098 -1.093937 -0.434937 -0.604921 -0.786104 1.156468 0.701153 -0.075711 0.341714 0.186445 1.141751 -0.245486 0.869029 -0.227354 0.667278 0.963806 0.583304 -0.381726 -0.200666 0.754362 0.291233 -0.960570 -1.908481 2.204615 0.285670 -0.911529 1.207035 1.063989 0.362817 -0.911801 0.470131 -0.046345 1.282721 0.423860 
商家 -0.617009 -0.998017 0.032748 1.161285 1.161194 -1.165197 0.396632 -1.288260 2.238826 -1.621020 -0.333815 0.614082 0.976679 -0.327733 -0.377397 -0.220146 -1.223205 -2.407401 1.200132 -1.273123 -0.140746 -0.031619 -0.345604 -0.943048 -0.575165 0.076839 -0.146926 -1.556739 0.605852 0.048327 -2.020038 0.465349 -0.625446 -0.245895 0.874670 0.453454 -0.828883 0.462229 0.597060 0.814144 -0.333016 0.967518 -1.727162 -0.917095 -0.625456 0.766779 0.362821 0.054268 -0.853033 1.032462 0.819701 1.057663 -0.779461 -0.642721 2.120496 0.745562 -0.811192 -1.040325 -1.119028 0.185552 -0.279819 -0.520612 -0.242296 -1.040222 0.050101 0.652849 0.835629 -0.234508 -0.250233 -0.555850 -1.586583 -0.101857 -1.578370 -1.063960 -1.517088 -0.529385 -0.120960 -2.018188 1.561077 0.408148 -1.199597 0.733544 0.685282 -1.593563 -0.714453 0.798329 0.106579 0.366898 0.019905 0.020457 -0.384848 2.938604 -1.032655 1.882277 -0.772678 0.374446 1.171180 0.356298 0.665569 -0.650525 
怎样 -0.513492 -1.138021 1.453864 -0.207319 0.637137 0.331032 -0.493701 -0.668439 -1.343954 0.391300 -0.854857 -0.566405 1.817296 0.972444 -0.006846 -1.334925 0.628322 0.742091 -0.496936 1.151583 0.943364 0.334590 0.251225 0.960670 0.901301 0.182513 -0.512752 0.147235 -0.360036 1.122893 0.226953 -0.274486 -0.025181 -0.762484 0.874293 0.485373 0.162468 -1.108972 1.113289 1.588694 0.059339 0.036445 -0.744544 -1.659017 0.413112 0.912347 -0.434349 0.946927 -0.408476 -0.428529 1.112847 -0.383993 0.225694 -0.544694 -0.901585 -0.206713 0.684994 0.640295 -0.110673 -0.598003 1.333127 -1.431717 0.474675 -1.221148 0.344567 -0.418177 0.199319 0.167531 -0.045001 0.657447 -0.417944 -1.545916 1.479032 -2.053241 0.659696 1.252837 -0.952434 0.116395 -1.696030 0.059316 0.839852 1.011401 0.457319 0.183871 0.003963 0.311141 0.392372 -0.677793 1.342114 -1.752729 -0.998695 1.252421 -0.174488 -1.411903 0.204246 0.184906 0.803324 -0.377668 0.458247 0.329389 
恢复 0.808312 1.499236 0.857421 -0.333307 1.578645 0.295148 -1.656195 -1.515463 -2.104636 0.583601 0.039632 -0.389993 -0.093140 -2.513973 0.496312 0.440734 2.607599 1.231738 1.340687 -0.202860 -0.812664 1.598924 0.855777 -0.274866 -1.280154 0.219009 -1.599579 -1.171212 -0.735804 0.217337 0.422745 0.666424 0.525749 1.172436 -1.292350 0.612252 -0.684543 1.478256 -2.684072 0.340420 0.964338 0.956485 -1.525061 -0.934601 -1.713165 -0.627708 1.792815 0.013216 0.517757 0.638290 -1.326235 1.151317 -0.182148 -0.305443 0.931086 -1.898919 -0.599172 0.649690 0.453847 0.533080 0.152523 0.504928 0.278841 0.319567 -0.802944 -0.879888 0.334742 -1.246155 -0.308425 -0.348583 1.903376 -1.155215 -1.491191 -1.408347 1.141577 -0.656541 -0.165907 -0.636688 -1.337708 1.335344 1.510213 -0.671262 -1.273646 -0.081625 -0.365134 -0.406696 -0.073279 -1.193046 -1.130355 1.508263 -1.230250 -1.167364 -2.218719 0.130530 1.472702 -1.106056 0.081812 0.107881 -2.714780 0.230603 
码 -0.650710 -0.125826 0.105862 0.776051 0.846565 -0.318616 0.512592 -2.248006 1.570346 -0.484855 -0.071996 0.454716 -0.418158 -0.080029 -0.473496 -0.164577 -0.791211 -2.817803 0.456634 -1.024016 -0.893783 -0.497161 -2.338238 -1.504529 0.040640 -0.769254 -1.212081 -0.402385 0.706704 0.270027 -2.285893 -1.204874 -0.966207 -1.053862 0.060888 -0.416972 0.912873 0.814744 0.003278 -1.852079 -1.406625 0.621580 -0.561337 -1.476187 0.161835 -0.227987 1.236250 -0.501537 -1.424029 1.397110 0.757228 0.391917 -0.390506 -0.667271 0.571676 1.710932 -0.294762 -0.122556 0.739994 -0.906501 -0.012942 -1.046340 1.320176 -1.830395 0.808872 0.939845 0.567366 -1.231660 -0.996409 0.083978 -1.258810 -0.218654 -1.368004 0.758459 -2.758208 0.192819 0.773855 -1.118358 0.777222 -0.912313 -1.652646 0.146702 1.651895 -1.579844 0.334884 2.572991 -0.771923 0.546363 1.376237 0.118212 -0.159552 1.859491 -1.816797 -0.669819 -0.222310 1.153092 0.070413 -0.000688 -0.516959 0.354379 
收钱 -0.050565 -1.683770 -1.145434 1.800426 1.598159 -1.488064 1.341654 -0.368418 1.797792 -0.748800 0.550048 0.718710 -0.797781 -1.631505 -2.073075 -0.257482 -0.188228 -1.578909 1.096490 0.957034 -1.244091 0.503462 -1.342471 -1.381225 -0.242197 -0.868453 -0.119819 -1.017500 -1.092109 0.327246 -1.467844 -0.745439 -0.583097 -1.521040 0.573445 0.862263 0.574347 0.663978 3.153210 1.247160 -0.530312 1.302668 -0.913447 -1.612526 0.585836 -1.414652 0.395814 1.548159 -0.032506 0.738003 1.901886 1.778151 -0.987229 -0.145769 2.344713 0.767758 0.756676 0.442120 -0.933314 1.062553 1.290633 -2.051723 0.329010 -2.553566 -0.657227 3.157352 0.434402 -2.478538 0.243985 0.009684 0.889362 0.332310 -1.780321 -1.305375 -1.975747 -0.875638 -0.215913 -1.796486 1.115815 1.702498 -1.275718 0.224252 0.763290 -1.456875 0.732705 -0.165870 1.144275 -0.036428 -0.889946 -0.095606 0.979660 0.611951 -0.307395 2.004780 -1.857187 1.423411 0.187204 0.921221 1.722386 -0.781826 
日 -0.022242 0.891340 -0.898957 1.181389 1.232496 0.702496 -1.528465 0.469670 -0.959254 -2.120668 0.826445 0.724173 -1.319744 0.688051 1.195460 -2.512850 2.292609 0.280544 -0.747414 -1.073445 0.974168 0.769427 1.923977 -0.167116 -0.129050 0.587528 -1.274490 0.372808 1.368425 -1.010132 0.951092 0.139974 -0.587146 -0.179187 -0.165027 -0.871383 -0.001777 1.560764 -0.926885 0.232084 -0.982389 -1.230913 -1.670094 1.328053 -1.487274 1.748098 0.834063 -0.911267 -2.299232 0.321456 -1.086619 -1.392781 1.635875 0.912862 -0.933184 -1.106047 -0.859107 -0.599077 0.403186 1.472847 -0.258925 1.603826 -1.371714 2.111967 -0.878268 -1.047968 2.246657 0.203694 1.882360 -0.427771 -1.217097 -1.254536 2.330438 0.379821 -0.454664 -0.803788 -0.061371 0.334267 -0.592683 1.173096 0.128228 1.763747 -1.619539 1.683640 1.027632 -0.060219 -0.848262 0.640359 -0.397636 0.837995 0.619207 -0.495454 -0.257527 -1.066051 0.895114 -0.282030 0.389498 0.006296 -0.558178 -2.886941 
完 -0.496585 0.941070 0.456730 0.081211 3.563147 0.951856 0.272272 -0.814509 -0.553103 0.652999 0.704049 0.012841 1.041699 -0.785588 -0.808817 0.457627 1.769303 -0.224209 -0.779657 -0.549188 1.541659 -0.496499 -0.540556 1.536968 0.285105 0.655567 -1.117742 0.112718 -0.652829 -1.192488 1.562519 -0.275089 -0.221024 0.598262 0.543724 -1.152203 -1.376552 1.467202 0.057166 -2.132578 0.585932 0.637795 0.383117 1.973037 -0.680817 0.201356 0.955942 -0.324165 2.218578 0.890588 0.397142 1.053415 -0.341548 0.667346 0.982015 -1.104817 -0.228159 2.508142 -0.296658 1.106163 0.063102 0.318333 -0.592782 1.414732 -0.433514 -2.600590 -0.514069 1.000261 -0.022240 0.731020 -0.456439 -1.976236 -1.513784 -0.540010 2.692841 -0.262158 0.219603 -0.834613 -0.670157 1.213050 -0.826632 0.240768 -0.713032 -1.268076 -0.401757 0.258408 -0.563689 -1.089831 -0.739005 -0.378533 0.319727 0.054189 -0.720936 1.464883 0.374442 -1.021274 0.054636 -0.120941 -1.804069 0.448023 
退 -0.073141 -0.812557 1.446650 -0.000551 2.455286 -0.967258 0.832663 2.004527 2.369992 -0.197761 -0.395047 0.828033 2.612169 -0.507731 1.378029 -0.978155 -1.265930 -0.696240 -2.074707 1.140135 1.814131 -1.052055 -0.056963 1.902930 -0.791418 3.522341 0.451765 -1.240017 1.451610 -1.962738 -1.729668 -0.412864 1.858180 -0.292706 1.310856 -1.411747 -2.045776 2.208154 0.301387 -0.360478 1.658225 -0.003468 -2.252807 0.922625 -1.378044 1.075893 -0.581472 0.427062 -1.197804 1.173670 0.877309 2.783383 -2.648353 1.146617 1.137730 -0.273747 -2.959066 2.438017 1.113393 1.013845 0.507772 3.634129 -0.980001 1.500719 -0.606964 -0.462933 0.350703 0.670683 1.190788 -1.262960 -0.014430 -0.233094 -0.128512 -0.476754 -1.690040 1.559392 -0.579258 -1.766012 -0.298085 1.585881 0.252625 -0.927747 -3.680032 -1.616120 -0.613838 -1.756539 -1.955388 1.104599 -2.892782 0.470809 -1.794434 0.900359 -0.867833 2.651055 1.937213 -0.091952 1.429879 0.516177 0.112641 -0.630994 
需要 -0.141937 -0.378601 -0.887998 -2.281593 -0.171908 1.846008 0.515215 -0.444453 -0.012064 0.059330 1.314969 1.242967 0.964488 0.115202 -0.532865 1.792176 -0.825467 0.290190 -0.586400 -0.218877 0.573472 2.094722 -0.810264 -1.043283 0.713096 -0.004551 2.123336 -0.496155 0.047242 -0.587111 1.360826 -0.188659 -1.461646 0.000968 -0.432204 -1.627659 -0.932863 -0.143355 -0.293529 0.316417 0.938474 -0.126861 -1.211891 0.750027 0.610259 -0.324292 0.751085 1.797222 -1.553077 0.112395 0.106245 -0.436309 0.147206 -0.742930 -0.435233 -0.184722 0.303342 0.486776 0.716532 0.274090 1.451405 -0.321479 0.877137 -0.971343 -1.454215 -0.316890 0.880720 1.030922 0.415493 -0.054095 -1.186000 0.189610 -0.824018 -1.234164 0.646223 1.058929 -0.964057 -0.692783 0.531153 0.512240 -0.854257 0.755687 -0.453970 1.328286 0.494371 -0.923946 1.878023 1.708384 0.555066 -0.434958 0.264813 0.946012 0.122281 0.566448 0.435367 0.738534 0.495934 -1.931144 -0.912391 0.708689 
个 -0.597063 -0.080570 -1.273581 1.267114 0.723734 -0.684194 -2.091438 -0.579066 -0.645607 -3.238025 3.894285 -2.010647 -1.906645 2.109144 0.744203 -0.410946 0.258164 1.801792 2.452897 -0.511350 0.664699 -1.493527 -0.843000 -1.504918 1.179630 0.592802 -0.579854 0.688719 -1.150241 -1.226358 0.914344 0.075111 -2.220843 0.254218 -0.464149 0.253140 -0.118168 1.801570 2.820114 0.048229 -0.793572 -3.199961 -0.062798 0.622253 0.477140 -1.720751 -0.500663 0.641523 -2.016274 -2.021921 -0.458835 0.867228 0.608371 2.707082 -1.448615 -2.167357 -1.526380 0.980841 0.693348 1.085415 1.244067 0.901676 1.998042 0.617094 -0.799594 -0.628266 -0.055320 -0.760741 0.155375 -1.124029 0.995117 -0.471277 -0.494424 -0.023809 -3.031052 -0.177393 1.330243 -0.418160 -0.429173 -1.496887 1.320333 -0.683417 -0.823858 -0.469819 0.698674 -0.712676 -1.153395 -2.941632 0.270143 0.233480 2.999306 0.152055 -0.403707 0.771466 -1.525131 0.809992 0.192173 -0.442245 -0.030060 -0.890534 
扣 -1.269935 0.258548 -0.090001 -0.015814 1.742969 0.001641 -0.836421 1.107245 -0.536406 0.187138 -1.129357 -0.303746 0.846318 -1.607153 1.293855 -0.689378 -0.875855 -1.030424 -3.200858 1.182517 -0.133165 1.164884 -0.298658 1.560752 -0.187300 0.053261 1.615478 -0.186571 0.884988 -1.934962 -0.914084 -0.473379 -0.508635 -1.493840 -0.219442 -2.042877 -0.376892 0.488273 0.116642 -0.241608 -0.680695 -1.440469 0.106545 0.890521 -0.712520 1.855116 -0.578551 2.242847 0.894712 1.513524 0.892176 2.166439 -0.014092 0.313618 -1.062273 0.071883 1.404138 -0.420591 0.864107 0.682554 -1.091982 2.108788 -1.679563 0.056350 -0.519028 -0.728854 1.079555 1.545438 0.724242 -0.259130 1.105215 0.181475 0.413196 -0.212264 0.980201 1.309590 1.493127 -1.736908 2.025414 1.263539 1.219908 0.346082 -0.624989 -1.061262 0.452448 0.496636 -0.565451 0.181003 -2.117355 1.921865 -0.187670 0.041523 1.063999 2.372623 1.810740 1.299473 0.634279 0.858972 0.646632 0.083895 
最低 1.384067 1.418080 -0.761474 0.765729 0.460083 0.969232 -1.039133 -0.123765 -0.833466 -0.076718 -0.244434 0.676499 -0.917672 -0.463690 0.117027 -2.343707 3.410211 0.451006 0.588712 -0.503802 0.736916 0.352516 0.200142 0.860271 -1.659964 0.946233 -1.063919 -1.598594 -0.264851 0.609799 -0.219741 0.047307 -0.297896 -0.385716 -2.122421 0.408056 0.443213 1.124214 0.375466 -0.275560 1.152173 0.161346 0.122641 1.892557 0.510275 0.325241 2.543799 -0.446259 -0.875339 0.716666 0.975487 -0.648378 -0.288864 0.048226 1.418168 -0.041756 1.261581 0.851048 -0.140505 -0.610320 -0.569136 1.662993 -0.750314 1.334880 -2.869860 -1.439118 1.100847 1.755704 -1.721581 0.498107 1.411911 0.042241 -0.592314 -0.997269 0.567449 -1.772199 0.434039 -0.596170 -0.713054 1.564181 1.616483 1.882014 -1.739828 0.547824 0.426965 1.019936 -0.469978 0.906912 0.448252 -0.736580 0.871581 0.593849 -1.021519 0.847188 -1.357715 0.993639 1.374420 0.092588 -1.786401 -0.271713 
是不是 0.283726 0.038198 0.394839 -1.759418 1.931857 -1.310084 0.628740 -0.214707 0.485225 -0.675783 -1.408882 -0.865898 0.689295 1.625363 -0.902823 -0.427728 -0.150490 0.117176 -1.049261 1.143313 0.234514 -0.811995 -1.032767 1.263617 0.250569 1.331674 -0.583375 0.807655 1.607089 0.905094 0.323324 0.165015 1.040236 -0.651686 0.297804 0.095000 1.344341 -0.020144 0.177977 -0.536493 -1.126138 -0.860020 0.297249 -0.077520 0.851088 0.629268 0.691213 0.234701 0.696747 0.472808 -0.153535 0.763555 -0.159046 -1.458500 -1.824847 -0.201401 0.033549 -1.109140 -0.068387 -0.583947 0.133459 1.188713 -0.371258 -0.415945 -0.006677 -0.596112 0.621131 0.696403 -0.226611 0.007200 0.475526 -0.666429 0.110784 -1.287666 0.163177 -0.120326 -0.776716 0.424179 -1.107450 0.032405 0.371840 -0.969734 0.092069 -0.207032 -0.006073 -0.505932 0.306469 -0.398505 0.240953 -0.893606 1.068254 0.052019 -0.422760 -1.099667 0.002681 2.169888 -0.351633 -0.396515 1.714238 1.296264 
东西 0.473513 -0.910622 1.884807 -0.224638 2.790074 -0.477631 -0.240057 0.402587 1.170645 -1.229426 -0.615522 -1.080682 0.503424 -0.091964 -1.300658 0.318170 1.750208 -0.274278 -1.488011 -0.661832 0.547054 -1.051527 0.216884 0.684700 0.600882 0.640037 -0.576352 -0.260236 1.672342 -2.095099 1.622175 -1.596975 1.591583 1.359147 1.169836 -0.894679 0.508015 -0.612682 0.738298 -0.143150 -0.269074 0.194134 -1.489562 -1.404559 -0.654519 1.646046 0.441726 -0.332152 -1.976402 0.677108 -0.414121 1.461981 -0.962695 0.729908 1.872993 0.135517 -0.809468 -0.323196 -1.087430 3.186921 0.819866 0.940916 -0.791772 -1.649311 0.801029 -0.019485 0.018672 1.565260 0.257378 0.229176 -0.932420 0.145969 -0.545495 1.921771 1.215599 -0.464656 1.529221 0.410635 1.200289 1.687536 -1.058431 -0.209122 -2.550601 -1.032034 0.968066 -0.615299 0.347987 1.417961 -0.117378 0.141492 -0.131499 1.771891 0.580021 2.332769 1.280154 0.441944 -1.381742 2.177716 1.196485 0.673628 
网商贷 -0.260293 -0.826588 -2.412557 3.607536 1.484945 0.119852 0.395342 -1.607130 -1.987034 1.283962 0.628302 -0.388840 -0.837558 -0.203935 -1.007014 0.418300 1.519964 0.040352 2.110840 -0.338235 1.121446 -1.303551 -0.728635 -1.500772 -0.094135 0.386570 -2.497688 1.274803 -0.708373 2.040748 -1.676156 0.487892 1.023056 -0.092625 -0.438028 1.274387 0.327245 2.202157 -1.326812 0.849195 0.304370 1.369090 -0.315380 1.590142 0.874901 -0.001542 0.557696 0.570631 1.070373 -0.345265 0.613525 -1.638941 1.440253 1.297981 0.452088 -1.789364 -0.854884 0.021481 1.298898 -0.050137 1.633277 -0.509775 0.062680 0.419753 -0.716269 0.580400 2.430726 -0.568865 1.111413 1.222942 -0.450168 0.416267 -0.121580 0.372760 -3.615089 -0.712733 -1.382212 -0.045398 -1.179745 0.361268 -0.629395 -0.025152 0.797792 -1.255995 -1.205732 -0.116760 0.107676 -2.311381 0.427101 0.507780 2.675341 -0.318815 -2.229328 1.079202 -1.269637 0.645069 0.650019 1.042301 1.029186 -0.977966 
哪里 -1.175836 -1.949947 2.092104 -1.117872 0.719964 0.766065 1.896691 1.588495 2.144781 -1.104237 0.222795 1.170810 2.114642 1.022087 0.945002 -1.050535 0.805666 -2.514794 -1.192906 0.909249 0.126784 -0.133725 0.158010 0.420202 1.777665 0.886848 0.622690 0.798156 1.620276 2.755107 0.585760 -0.214027 -0.584059 -0.813983 2.137470 1.096250 1.771102 -0.874182 0.907001 2.228817 -0.361936 0.741475 -1.240339 -0.450317 0.734860 0.254011 -0.392271 1.688406 0.010658 -0.307722 0.117258 -0.500506 -1.375022 0.449425 0.561043 -0.093007 0.303898 1.172751 -0.280644 0.606031 -0.222661 0.518933 0.389048 -0.846473 1.186329 0.145460 0.745525 1.545692 1.981919 -1.095082 -0.695426 0.897337 4.216558 -0.420792 -0.472818 0.825990 -0.982408 1.086603 -3.173035 -0.498121 0.199790 0.185877 0.334149 0.599516 -0.668330 0.131687 -0.846912 0.800085 -0.452224 -0.857362 -1.662338 2.616538 1.730808 0.242156 0.358046 0.861472 0.731987 -0.734824 -0.546829 -2.299926 
分 -1.690774 -0.275094 -1.179452 -0.447057 2.531272 0.302657 -2.454993 -0.379845 -2.162814 0.081850 1.151095 1.298176 -0.509583 -2.306612 -0.897403 -0.349339 1.503094 0.634684 0.057776 -2.204659 0.578466 0.848351 -0.883053 -1.800349 0.417216 1.671439 -0.931454 -1.804700 -0.173174 -0.939054 0.812664 0.617720 -0.829250 -0.242269 -0.407783 0.878615 -1.037810 1.211428 1.134924 0.506888 -1.544107 -1.372170 -0.695423 0.530644 2.043989 -0.354725 1.208285 -0.168267 -0.514355 -0.407869 -0.108224 0.210701 0.823330 0.647193 0.357848 1.516423 1.081626 -0.084191 -1.318959 1.211369 -0.945553 1.691266 1.005208 -0.830120 -0.249213 -0.289872 -0.400343 0.576442 -1.050675 0.049175 1.456142 -0.923088 0.355178 0.378334 -0.265972 -1.692607 0.796284 1.101049 0.834950 -1.127693 0.463112 -1.131598 -1.097350 -0.645523 1.209784 -0.866330 -2.404806 -0.431489 1.372000 -0.305954 1.160495 -1.678684 -1.279515 -0.652867 -1.267976 1.539037 -0.055322 0.273357 -2.340382 0.346343 
手机 -0.858140 -1.807063 1.991312 0.521693 1.058571 -0.113299 1.129676 0.644658 0.207781 -0.856321 -0.099010 -0.394905 -0.472597 1.551410 -0.007527 0.748021 -0.037807 -0.343583 -0.095983 -1.504403 -0.200842 0.337114 -0.282592 1.676307 -0.993153 0.367929 0.473631 0.068752 0.464328 -1.173943 0.082612 -0.676541 2.433470 1.151827 0.275337 -0.669115 -0.120798 0.130608 0.279716 1.899422 0.115912 -1.237782 -0.397197 -1.676231 -0.782556 0.077778 -1.313895 -1.603926 -0.263692 -0.484398 -1.464724 -0.320793 1.284068 1.188971 -1.149469 0.844534 -0.848760 0.538365 0.190373 -0.246341 -0.346813 0.014891 0.760764 -1.841114 0.761337 1.258288 2.144968 1.296721 -0.379917 0.568597 -0.396915 0.502380 -0.688132 1.791654 -1.237074 -1.268353 -1.416088 0.162849 -0.879853 0.498965 -1.085099 -0.854173 -2.660770 -1.415066 1.000865 0.652371 1.516399 -0.266091 1.392637 -0.737243 0.492385 1.090738 1.292705 0.618350 0.278219 -0.178076 -0.633380 1.384280 0.889013 -0.090117 
也 -0.058114 -0.593228 0.506130 0.112238 -0.433351 -1.788677 -0.068194 0.645236 0.360162 -0.153763 -1.109717 -0.593636 -0.066275 1.204871 -1.398195 1.134438 0.637737 0.405736 -0.331724 0.335914 -0.063794 0.149734 -1.220872 2.270162 0.762160 0.778595 0.844039 -0.916968 1.616941 -0.053875 -0.162010 -0.949141 0.306336 0.676780 1.105085 -1.062779 0.473021 0.668401 -0.391890 -0.080830 -0.328577 0.009861 -0.530779 -0.011904 -0.222290 0.580059 0.608154 0.434309 0.891524 0.189310 0.168097 0.216472 -0.082531 -0.114929 0.523565 -1.072562 -0.803585 0.053145 -0.933719 0.028284 -0.886591 0.336435 -1.032858 -0.194289 -0.966103 -0.084297 -0.386086 0.851309 -1.414674 -0.231435 1.221138 0.915877 0.415568 -1.285396 0.612946 1.094647 0.663820 -1.176416 0.071987 -1.259722 0.259026 0.219988 -1.128365 -0.908191 0.264151 -0.074401 -0.474079 0.403344 -0.970203 0.223935 0.706673 -0.361249 1.742581 0.218721 0.125211 0.856573 -0.087178 0.552179 0.975211 0.466416 
